nep4 2 Ge Sn 
cutoff 7 5 62 28
n_max 4 4
basis_size 12 8
l_max 4 2 0
ANN 30 0
 -1.0396822e-06
  2.6773650e-06
  6.3437358e-07
 -1.2981999e-06
  5.6758148e-07
  1.9889283e-06
 -7.4509182e-07
 -3.3976405e-06
 -2.6985757e-07
  1.2452497e-06
 -4.8836264e-06
  9.4668684e-07
  1.6085825e-06
  2.3560899e-06
 -5.2195037e-06
 -7.7340741e-07
  1.7409802e-06
  3.1531342e-06
  7.5953376e-06
  1.0164285e-06
  2.6195910e-06
 -1.3910964e-06
 -4.6368241e-06
  4.8325080e-07
  3.2190601e-06
 -2.7551130e-06
 -7.8382163e-07
  9.0037202e-07
 -2.4721094e-06
 -2.3022667e-06
 -3.6891577e-06
 -3.5146390e-06
  8.8528873e-07
  5.0150470e-07
  7.0009287e-07
  3.2407188e-06
  3.3290808e-06
 -6.3779407e-06
 -3.5515393e-06
  2.7260549e-07
 -8.3205678e-06
  4.2540711e-07
  1.4332096e-06
  4.2315596e-06
 -2.7276592e-06
 -9.1784557e-08
  1.8994712e-07
 -5.3101908e-06
 -1.6823732e-06
 -8.2566030e-06
  7.0822472e-07
  2.8153861e-06
  3.3491352e-07
 -7.7461082e-06
  3.2187468e-06
 -7.1754272e-07
  3.3679812e-06
  4.5528267e-07
 -4.2748989e-06
  8.5332289e-07
 -9.3519211e-01
  3.0012054e-06
  1.4944511e-06
  4.2137492e-07
  2.0292403e-02
 -6.7620263e-06
  6.5063330e-07
 -6.6902421e-06
  6.7871034e-02
 -8.1425524e-06
  1.0500503e-01
 -7.1031391e-06
 -1.8164408e-05
 -1.4531454e-02
 -4.7068947e-06
  5.2412124e-06
 -4.4717726e-06
 -2.4272483e-06
  2.5775972e-01
 -3.8191183e-06
 -9.7383406e-07
  8.4047315e-06
 -5.6778731e-07
  1.2554597e-05
 -3.8053247e-06
  1.9274958e-06
 -4.3221129e-07
  4.4740468e-06
  1.3883002e-06
  3.5632669e-07
 -2.3783062e-01
 -6.5156487e-06
  2.2156965e-07
  3.6045665e-06
  3.4735687e-02
 -2.7964472e-06
  1.9876375e-06
  3.8081355e-06
 -1.3692305e-05
  2.0438008e-06
 -1.5650859e-06
 -9.9321494e-07
 -1.4311629e-06
  9.7620337e-05
 -1.1945144e-06
 -7.1880942e-07
 -7.6551635e-07
 -9.2693728e-07
 -1.0830322e-01
 -2.8106845e-06
 -8.2775214e-06
 -2.7415067e-06
 -2.6658347e-07
  8.4358935e-06
 -2.5837369e-07
  3.9307093e-07
  2.8695506e-06
 -9.4132594e-07
  2.8340451e-06
  1.5482952e-07
  2.8316999e-06
 -8.6045775e-06
  5.1176266e-06
 -3.9702009e-06
 -9.5023228e-07
  8.2325373e-09
  7.8345338e-06
 -6.6438162e-07
 -8.6316042e-08
 -2.4754561e-06
 -1.9008108e-06
  1.9935567e-06
  5.7872131e-07
 -2.4063181e-06
 -9.1627544e-07
 -4.9884034e-06
  3.1272618e-06
 -2.2138241e-07
  7.7546174e-06
  1.0545741e-05
  1.2148653e-06
  3.5495268e-06
 -4.5505911e-07
  6.0115167e-07
 -3.3441790e-07
 -1.0253125e-05
 -2.2622019e-06
  2.2422798e-06
  2.7186243e-06
  1.3508907e-06
  1.4715202e-01
  9.3942759e-08
 -1.4377812e-06
  1.2753778e-08
 -3.5655595e-02
  2.9727933e-06
  1.4365592e-06
 -7.5251041e-06
  3.5696323e-07
  1.3549504e-06
  2.3361906e-06
 -4.0033469e-06
 -5.1603520e-06
 -8.5710622e-03
 -6.6268412e-06
  6.8983718e-07
  4.1194508e-06
  9.2423655e-08
  1.3597164e-01
  1.5725745e-06
  2.6644771e-06
 -6.6935245e-06
 -2.0464840e-07
 -4.6232785e-07
 -8.3350602e-07
 -2.5102670e-06
 -2.6568027e-06
 -3.2710844e-07
  2.4191613e-07
 -4.5996303e-06
 -3.6833477e-08
  1.8428325e-06
  1.6187392e-06
 -7.0076339e-07
  2.4025307e-05
 -4.1705516e-07
 -7.5812244e-07
 -2.2273721e-06
  1.7632061e-06
 -3.9491101e-06
 -5.5966461e-06
  1.4159364e-06
  1.2860315e-05
  3.9609258e-06
  4.1611461e-06
 -2.5976959e-07
 -1.5837220e-06
 -4.5368549e-07
  7.1880601e-07
  1.0650867e-06
 -5.2229319e-07
  2.9816522e-06
 -3.4276447e-06
  2.7165811e-06
  1.5691037e-07
 -3.3813683e-06
 -5.9204626e-06
  2.4295646e-06
 -7.6804754e-06
 -4.3496530e-06
  2.0395441e-01
 -8.0077643e-07
 -8.9607092e-06
  8.6956661e-06
  4.1523899e-06
 -2.1813512e-06
  8.2348097e-06
  6.3624590e-05
 -1.1191535e-05
  3.7903551e-06
 -6.8289587e-06
  3.1238710e-07
  6.7962537e-06
  2.6980058e-05
  1.0563125e-06
 -8.5323728e-07
  1.4625457e-06
 -1.0846239e-05
 -1.4094836e-01
 -3.7100408e-06
 -2.4193634e-05
 -1.7498386e-06
 -1.8703593e-06
  7.2257212e-06
  2.2331265e-05
  9.6848441e-07
  2.4252273e-08
 -3.4671909e-06
  2.4969490e-06
 -3.5683581e-06
  1.0232359e-06
 -1.6979499e-06
  1.2167909e-07
 -6.2124144e-07
 -9.0568086e-08
  1.5764206e-06
 -8.7292974e-06
 -2.1703715e-06
 -1.8662225e-06
  1.5768828e-07
  4.7883395e-06
  3.9732711e-07
 -6.3483371e-06
 -2.7071103e-06
 -6.1892189e-07
 -8.6814829e-08
  8.1532409e-07
  9.1145893e-07
  1.7420380e-06
 -2.2820589e-07
  4.8807351e-07
 -1.6712326e-06
  2.7286926e-06
 -1.8851305e-06
  9.3665392e-07
 -4.6751093e-06
  2.2929746e-06
  1.1271941e-07
 -3.1824152e-07
  6.3066645e-06
  6.6732687e-06
 -4.3531686e-06
 -4.6069795e-06
  3.1939239e-06
  1.1885397e-06
  1.6524141e-06
 -4.9748803e-07
 -1.3028291e-07
  2.9681194e-06
  7.7460555e-08
 -8.9213363e-06
  1.4736655e-06
 -8.9471746e-07
 -3.3150508e-07
  4.6137197e-07
 -2.1330159e-06
 -1.7228207e-06
 -9.4555770e-07
 -9.0450749e-07
  2.5111083e-06
 -3.0164779e-06
  1.0545489e-07
  9.4639250e-07
  1.3102360e-06
 -1.9701979e-06
 -5.6672985e-07
  5.3814961e-06
  3.1893176e-06
  4.4175067e-07
  2.7869234e-07
  2.7587559e-02
 -1.0408333e-05
  4.5759032e-07
  5.2719770e-06
 -2.8209305e-01
  2.6350252e-02
 -5.7243222e-01
 -4.8520288e-01
  8.4598489e-02
 -3.9485869e-01
  3.9436659e-01
 -1.1410481e-01
 -2.6053971e-01
 -3.2714918e-02
 -8.3494214e-03
 -9.7172797e-02
  1.9457071e-05
  1.0735130e-04
  7.3917019e-01
  2.4669985e-06
  7.1089484e-02
 -3.1680409e-02
 -1.4903207e-05
 -2.4791891e-04
  5.9084169e-08
  3.8306398e-06
 -1.1972140e-06
  2.9484312e-07
  1.7464638e-02
 -1.0571078e-05
 -6.5034214e-06
 -3.6171991e-06
 -1.8436315e-07
 -1.1559378e-06
 -1.0583140e-06
 -8.8898098e-09
  4.2039383e-06
 -2.3276973e-06
 -3.0356007e-06
  7.6268338e-06
 -2.8057022e-07
  7.9156871e-06
 -1.1404444e-06
 -6.5082401e-07
  3.8718103e-06
 -1.7664748e-06
  1.8189838e-06
 -5.5641635e-06
  6.3934891e-07
  2.1239784e-06
  5.6825396e-08
  3.0686738e-06
  3.8609678e-06
 -9.4047340e-07
 -6.5428628e-07
 -1.5381294e-06
 -1.1671654e-06
 -1.2981193e-06
 -1.2542580e-06
  2.3592713e-06
  2.0419982e-01
 -3.1073043e-06
 -7.5351056e-07
  8.3404066e-06
  3.3100798e-05
  2.3022326e-06
  2.0199882e-06
  2.0399875e-05
 -5.0344947e-03
  3.9734027e-06
 -6.7112223e-06
 -8.2527208e-07
 -5.4214784e-08
  1.2156180e-01
 -6.2719005e-07
  1.4608232e-05
  4.5910903e-07
 -6.7580669e-07
 -4.2362788e-01
  2.0017815e-07
  1.3247432e-06
  5.8038827e-06
  7.6629303e-06
 -1.5046411e-06
  3.8956468e-06
 -1.2945579e-06
 -4.7018698e-06
 -5.3297583e-07
 -5.4700004e-06
 -2.0046075e-06
 -3.4939361e-01
  2.7931299e-07
 -7.8215243e-07
 -3.7090916e-07
  4.4930704e-02
  1.0301017e-06
 -4.6817142e-05
 -2.2982765e-06
  2.0548182e-06
 -1.8603013e-06
  3.8814789e-05
 -5.2244509e-06
 -6.7804872e-06
 -3.2240159e-03
 -5.5187688e-06
 -2.0341431e-06
 -3.3535894e-06
  8.8602940e-07
  1.0816757e-01
  6.1311505e-07
  4.4746367e-09
  2.4604563e-07
 -4.7910344e-06
 -3.0713547e-06
 -5.3991425e-06
  1.3550467e-06
 -1.1878194e-06
  2.2585616e-06
 -2.2793768e-06
  1.6715450e-06
 -2.6561129e-01
  5.3553840e-06
 -2.5537752e-06
 -3.6097019e-06
 -1.8232409e-02
 -7.6287262e-07
 -3.3879086e-02
 -3.0172359e-02
  2.1236564e-03
  1.0733636e-06
  6.5419704e-06
 -4.5557044e-06
 -4.5672555e-06
 -2.5673136e-02
 -9.4963116e-06
 -5.5142999e-07
 -2.0471050e-06
 -3.3389340e-06
  4.5368427e-01
 -2.5699492e-07
 -5.1027814e-07
  3.6406482e-06
 -9.2148559e-07
 -5.4970128e-06
 -6.1396127e-06
 -1.5456192e-06
 -7.7156174e-06
  6.3344930e-07
 -4.3825247e-07
  2.0311495e-07
  7.0558817e-06
 -2.6150469e-06
 -1.9381396e-06
 -8.0074489e-07
  6.9726098e-06
 -2.4215905e-07
  4.5056045e-06
  1.8897590e-06
  2.0287962e-07
  2.5301908e-06
  1.8005242e-06
  2.2598849e-06
 -3.0344149e-06
 -7.0316020e-07
  5.5732818e-07
  1.6180646e-06
  2.1787994e-06
  5.2122132e-06
  6.6358876e-07
  1.1241964e-06
 -3.5014534e-06
 -2.9240493e-06
 -2.5887189e-07
  4.3233072e-06
 -3.6849719e-06
  6.5505100e-07
 -9.7526527e-06
 -5.4224756e-07
  6.0408865e-07
 -1.3838797e-06
  2.6667431e-01
  3.9701958e-06
  9.1513548e-06
  1.4057741e-06
 -1.6805243e-05
 -1.1907999e-06
 -1.0029534e-02
 -9.8710721e-03
  1.2586033e-02
 -4.2666011e-06
  4.7976632e-02
 -2.6343394e-06
 -3.7131390e-06
 -1.5772602e-02
 -2.0843871e-05
 -7.9968422e-06
 -1.8341509e-06
 -1.4019594e-06
  1.6697039e-01
  2.2438269e-06
  2.9434599e-07
 -1.4972860e-06
 -1.6842819e-06
  2.2819854e-06
  3.1728505e-06
 -2.1499578e-07
 -4.3395594e-06
  7.2862171e-08
  1.1605543e-05
  2.8544691e-06
  7.3886890e-06
  8.9634041e-06
 -4.3518294e-06
  3.5488557e-07
 -4.1264653e-07
 -2.8345426e-07
  8.4974783e-07
  3.4756902e-06
 -2.1130411e-06
 -1.7098700e-06
 -1.0775489e-06
 -4.7969106e-06
 -3.6056895e-06
 -1.1437671e-06
  4.9478717e-06
 -2.7069568e-06
  3.2750518e-07
  1.3275386e-06
 -1.2620371e-06
  2.9855642e-06
  2.5403321e-07
  3.2219799e-07
 -7.7249780e-07
 -1.2005108e-08
  1.8957157e-07
 -1.0611043e-06
  1.8945987e-06
  3.9467034e-07
  3.7460377e-06
 -3.2855503e-06
  8.2962544e-07
 -1.8827762e-07
  9.0174046e-07
 -2.1254293e-06
  1.2106868e-06
 -3.0783394e-06
  1.8805711e-06
 -6.3280737e-08
  1.6151412e-07
  1.3062313e-06
  2.1476021e-06
  2.8666332e-07
  1.8231644e-06
  1.5701638e-06
  1.9989175e-06
  3.2837553e-07
 -8.5196882e-07
 -2.4695285e-06
  4.2340471e-06
 -4.2112561e-06
 -3.0604435e-06
  6.0154089e-06
 -9.7024110e-07
 -1.4457228e-08
  1.7537820e-07
  9.9576437e-07
  1.8736730e-06
  1.3402466e-06
 -1.0118246e-06
  8.1572131e-07
  6.8165855e-07
  1.2008105e-05
 -2.2911611e-06
 -7.4147424e-06
  1.0353446e-06
 -3.5062594e-06
 -2.2528275e-06
  1.0410105e-06
 -8.5612108e-08
  4.6350721e-07
  5.7771654e-06
 -1.8713183e-06
  2.7184310e-06
 -2.0762941e-06
  7.5596012e-07
  3.9531474e-06
 -3.9318888e-06
  3.7836107e-06
  1.5118140e-06
  4.6070923e-07
  2.0413518e-06
 -2.0016739e-06
  2.5949771e-06
  1.1136437e-06
  3.7797713e-06
 -4.9455264e-07
 -2.9987216e-06
 -4.4412818e-07
 -8.5381844e-06
  2.4862256e-06
  2.5538338e-06
  2.8519003e-06
 -3.4492345e-08
 -1.9209738e-06
 -1.1635169e-06
 -1.7865721e-06
  2.3986659e-06
  2.0264068e-07
 -1.1655969e-05
  5.3741144e-07
  7.1352870e-06
 -1.5620336e-06
  6.2848876e-06
 -6.5559078e-07
  2.4806880e-06
 -3.6831804e-07
  2.2750014e-06
  6.6941816e-06
  1.0674987e-05
  2.2327315e-06
  4.1206408e-06
 -8.9014327e-07
  4.5952838e-06
  7.9004997e-07
  2.2671486e-06
 -5.1584868e-07
 -2.9077702e-07
 -4.6805421e-06
  1.0077557e-07
  1.0459190e-06
 -1.1493188e-07
 -2.6223719e-07
 -4.3506844e-07
  3.6330783e-07
  3.0821565e-07
  2.4889806e-07
 -5.9323543e-07
  2.8511381e-06
  9.1662054e-07
  4.2455035e-06
 -2.7811113e-06
 -1.2362949e-06
 -1.6815786e-06
 -7.7712491e-07
 -4.2842357e-06
  7.2609140e-07
 -7.6721171e-06
  1.4582955e-06
 -2.6428436e-06
  2.6702023e-07
  3.1038333e-06
  1.7100231e-06
  1.1032223e-06
  9.9433555e-07
  3.9723745e-06
 -2.3864961e-06
 -4.6159860e-07
 -2.0345301e-06
  8.7447027e-08
  2.2235383e-06
 -1.5688403e-06
 -6.9092283e-07
  6.8757763e-06
 -4.4373164e-06
  6.8683894e-06
  2.0175448e-06
 -1.1781525e-06
 -1.2420969e-06
 -1.2839782e-07
  4.1230123e-06
  1.6692384e-06
 -7.4783730e-07
  2.6045325e-06
  7.3731331e-07
 -7.0236911e-06
  6.6732633e-07
  1.2436692e-07
  3.9664242e-06
  1.9163701e-06
 -3.5485465e-07
 -8.6984437e-06
 -3.6456424e-06
  2.2640467e-07
 -7.5245629e-07
 -7.2974522e-06
  5.6467508e-07
 -1.1518280e-06
  9.9953843e-07
  8.4153345e-07
  9.1388165e-06
  5.4369771e-06
 -1.9207596e-07
  4.2849856e-06
 -7.4740328e-06
 -7.9052955e-07
 -8.4400472e-07
  1.3735807e-06
 -3.6960525e-06
 -2.8914931e-06
  4.1805065e-06
  1.7924975e-06
  1.0075848e-06
 -5.3776812e-06
  1.2523519e-06
 -3.0088772e-06
  3.0902938e-06
 -6.9918008e-07
  3.6328208e-06
  1.4385340e-06
 -2.7308538e-06
 -4.6348018e-07
  1.1432266e-07
 -3.9055422e-07
 -2.1992796e-06
 -2.1993710e-06
  2.9745961e-06
 -8.9549376e-06
 -8.0421978e-07
  3.1547183e-06
 -1.8840265e-06
  4.2177644e-06
 -1.1028717e-06
  3.6385885e-07
  1.4632881e-06
 -2.8429645e-06
  6.0442285e-06
 -9.9634394e-07
 -2.9626969e-07
  3.1351251e-06
 -2.8123611e-06
  6.1117307e-06
 -1.3421329e-06
 -1.0567687e-07
 -4.1132530e-06
 -2.7177769e-06
 -4.2235536e-07
 -5.9905057e-07
  8.2924198e-06
 -1.1750598e-06
  8.7556367e-07
  1.6296379e-06
  8.3596746e-07
  1.4853260e-06
 -3.2967127e-06
  1.2190103e-06
  4.8641100e-06
  1.5756672e-06
 -1.6807998e-06
  6.9806481e-07
 -5.5742112e-07
  7.9205304e-01
 -4.6593016e-08
  1.5423010e-06
 -2.8361342e-06
  7.6778746e-01
 -2.9100224e-06
  1.1512876e-01
  1.3696083e-01
 -2.3791716e-03
  1.3071673e-06
 -1.2765920e-01
  6.2213578e-05
  8.4608137e-06
  2.6418060e-01
  1.3564406e-06
 -2.3763062e-06
  2.4481819e-06
 -1.6599685e-06
 -9.6329784e-01
 -1.5450807e-05
 -3.6733938e-05
  6.3275561e-06
  2.5138315e-05
  8.9779138e-07
 -1.7218192e-05
 -1.1004064e-06
  1.8604948e-06
  8.3089020e-07
 -1.3934095e-06
  2.4359647e-06
  6.8586269e-07
  1.0889648e-06
 -8.2411628e-07
  6.1237967e-07
  6.3584923e-07
 -2.0934228e-06
  2.1764379e-07
  6.6586992e-08
  1.3829156e-06
 -2.4945120e-06
 -8.7534818e-07
 -7.4318410e-07
 -1.6168825e-06
  4.8784700e-06
 -4.3059896e-07
  4.2581064e-06
 -9.1686928e-07
  7.6147044e-06
  1.5942139e-07
  4.4964992e-08
  3.6952990e-06
 -1.9123750e-06
  3.9246565e-06
 -4.5616741e-07
  2.6990608e-06
  4.0194759e-06
 -1.8853492e-06
  1.5703378e-06
 -9.6481884e-08
 -8.0177060e-06
 -1.7171502e-01
  7.0783011e-07
  1.0067679e-06
  1.8105765e-06
 -7.7885628e-02
  4.0059895e-06
 -8.4458870e-06
  1.6001711e-07
  1.9098229e-06
 -6.7121805e-06
 -8.0544106e-07
  6.3787816e-06
  4.0764397e-07
 -3.7283403e-06
 -1.3466043e-06
  1.4733142e-06
 -1.3110932e-07
  2.5520565e-06
  1.0668325e-01
  4.4581307e-06
  3.4064808e-06
  8.7622821e-06
 -1.5917806e-06
 -2.1044057e-06
 -1.3588169e-06
 -2.5811969e-06
  2.0756188e-06
 -3.6213737e-06
  2.0692166e-06
  1.0278330e-06
  5.9940926e-06
 -5.0478661e-07
  4.5871013e-07
  8.8888301e-06
  5.5951336e-06
  4.1594608e-06
 -1.0326282e-06
  3.4512066e-06
 -4.8335214e-06
  8.4907981e-07
 -3.1148770e-06
  1.7860229e-07
 -4.1531071e-06
  1.2234760e-06
  9.6011843e-07
  5.6096741e-08
  1.0076783e-05
  2.7227920e-06
  2.2448492e-06
  2.0103669e-06
 -3.6813731e-07
 -1.8134588e-06
  3.2801076e-06
  9.4036670e-07
 -2.6326272e-06
 -4.3162313e-06
 -6.8486321e-07
 -4.1319645e-06
 -6.1201567e-06
  5.1489342e-06
  2.2927135e-01
  4.7204521e-06
  1.2853097e-07
 -1.4138490e-06
  9.5419500e-06
  4.2433085e-06
  1.5954867e-05
  1.3945855e-06
 -1.9942534e-06
 -2.3519212e-07
  3.0714480e-06
 -8.9334071e-07
  1.9238725e-05
  2.0522501e-02
  2.0483810e-06
 -1.8744623e-07
 -3.9019898e-07
 -2.5387969e-06
 -2.3742284e-01
 -3.6508243e-06
 -4.7261578e-06
  2.8346628e-06
 -2.4718543e-06
 -1.4708643e-06
 -2.4260316e-06
 -1.7704218e-07
  1.6159847e-06
  2.8369084e-06
  1.8312436e-06
  4.4038707e-06
 -2.5800564e-06
  2.2609026e-06
  6.8715356e-02
 -8.3667845e-02
  8.3070777e-02
  4.3005744e-01
  1.9729395e-01
  7.1554804e-01
  1.2793346e-06
 -6.8678770e-07
  1.0595150e-01
  6.9896856e-07
 -4.6747229e-01
 -5.5512053e-01
  4.7866300e-01
 -9.9580529e-06
  7.1698284e-01
  1.4526212e-06
  2.1883393e-06
 -5.9409276e-06
  1.3222622e-06
 -8.2380884e-06
 -1.9471030e-07
 -9.8643477e-07
 -1.1020738e-06
 -2.6804039e-01
 -1.3213737e-06
 -2.3974821e-03
  1.3986719e-06
  1.0655992e-02
 -9.8970816e-07
  4.3454588e-07
 -4.1209683e-01
  2.0247711e-01
  9.0930440e-02
 -2.7417836e-01
  1.1743611e-01
  4.9140924e-01
 -1.5928396e-06
 -2.0337793e-06
 -1.5730821e+00
  1.7460774e-06
  2.6633897e-01
 -4.4663486e-01
 -2.8970072e-01
 -5.2208929e-07
 -7.0682597e-01
 -4.2107945e-07
  1.5248880e-06
  2.6479659e-06
  4.1570343e-06
 -5.2563960e-06
  1.2453701e-06
 -1.9399519e-07
 -3.6789177e-07
  5.5165190e-01
 -4.2141014e-06
 -2.2203144e-01
 -7.0805629e-07
  2.5357160e-01
 -2.5313261e-07
 -2.8190757e-06
  6.3970331e-09
  4.5540264e-06
 -4.2321690e-06
 -1.9378667e-06
 -1.3863888e-06
 -6.0597849e-06
 -2.0089713e-06
 -1.5123393e-06
 -1.8948965e-07
 -1.9173833e-06
  3.5284475e-07
  1.0443404e-06
  3.7323298e-07
  1.6631224e-08
  2.4659027e-08
 -7.4318727e-08
  1.3259947e-06
 -1.4921742e-06
  3.6802066e-07
 -1.0886365e-06
 -1.8009773e-06
 -9.5638670e-06
 -4.8902297e-07
  6.0242633e-07
  1.5882055e-06
 -6.4364798e-07
 -6.3182742e-06
 -1.6521974e-06
 -2.3292699e-07
  2.8206512e-06
  7.8625199e-06
 -1.8789208e-06
  2.9215910e-06
 -1.7861089e-06
 -4.4961635e-06
  2.6472308e-06
  1.6027033e-06
 -4.8552592e-06
 -2.6590538e-07
 -3.3241943e-07
  2.4799149e-06
  6.9830517e-06
  2.0963725e-07
  4.5131433e-06
  9.4265934e-06
 -8.6302225e-06
 -4.1670384e-07
 -9.4195384e-06
  1.4319538e-06
  4.9959476e-07
  2.1669866e-06
  1.9643942e-06
 -2.8366856e-06
  2.8443699e-06
 -8.7393965e-07
  2.8837567e-06
  2.1185565e-06
  2.5112129e-06
  1.9086654e-07
  6.3260302e-08
  3.2969510e-08
 -2.7884143e-06
 -2.0021305e-06
  1.9627360e-06
  3.9652728e-06
 -6.7138940e-06
 -3.2378978e-06
 -1.4592827e-06
 -2.1703495e-06
 -7.3595533e-07
 -2.2625707e-06
  8.6290356e-06
  1.2322457e-06
 -1.0542851e-06
 -8.4752475e-07
 -1.0590304e-06
  3.7256957e-06
  1.5845420e-06
  1.5984361e-06
  3.6359836e-08
 -1.0182955e-06
 -8.2927045e-07
 -9.8070302e-08
  1.8977536e-05
 -2.6987407e-06
 -2.8303302e-07
  7.7659990e-07
 -5.3571608e-07
  1.8325557e-06
  7.3752182e-07
  1.6334174e-06
 -8.0449860e-07
  1.3560329e-01
  1.1432480e-05
 -7.4163922e-03
 -1.4729309e-02
  1.3785510e-01
  1.5681768e-06
 -7.9878955e-04
  2.6734675e-08
 -1.2450557e-06
 -3.6436932e-06
  1.6935596e-02
 -2.3144004e-01
  2.3866809e-07
 -1.7186419e-06
  1.2751991e-01
  6.1953403e-07
 -2.3295568e-01
  1.9939912e-06
 -4.4376984e-06
 -3.5857297e-02
 -4.6516870e-06
 -1.5435682e-05
 -6.4962633e-06
  7.2031185e-07
 -5.9766066e-08
 -3.3712085e-06
  1.8196706e-06
  5.2181673e-07
  2.4754424e-06
 -2.6971036e-06
 -4.2102799e-01
  3.2833803e-02
  5.4451495e-02
  3.0073181e-02
  3.2557259e-06
  1.6606914e-02
 -2.7555245e-01
  1.8335086e-07
 -3.2832775e-06
  1.4827617e-05
 -4.1535455e-03
  2.9239732e-01
 -6.9029775e-06
  3.3468160e-07
 -9.2365526e-02
  7.1520719e-07
  3.1755662e-01
  7.2224418e-07
 -2.1886540e-06
  6.2584554e-06
 -8.4753792e-06
 -6.3828776e-07
 -1.2196367e-05
 -2.1466901e-06
  1.2406153e-06
  8.1181730e-07
 -2.0167565e-07
  1.1754444e-06
  2.6021503e-06
  2.3422403e-07
 -1.1651336e-05
 -6.0469370e-06
  8.5001767e-07
 -5.8097544e-06
  4.0726268e-06
  2.7651192e-06
 -2.1022984e-06
  2.3906537e-06
  2.6428363e-06
 -1.1263757e-06
  3.1781942e-06
  9.5789597e-05
 -5.0258927e-07
  4.5390814e-07
 -3.1161060e-05
  2.1648159e-05
  8.9886234e-06
  4.6495215e-06
  5.1633020e-07
 -6.7765023e-07
 -2.2058020e-06
  1.8373207e-06
 -4.2318784e-06
  7.3660744e-06
  2.2933118e-06
 -1.7608387e-07
  2.8782057e-07
 -1.2646511e-07
  7.5872799e-06
 -1.9471727e-06
  1.7981642e-01
  4.3182179e-01
 -2.1692212e-01
 -2.4304144e-01
  2.2560690e-02
 -2.2875469e-03
  2.0755190e-01
 -1.0272121e-01
 -4.7286984e-02
 -1.6165151e-01
  2.1730968e-01
 -4.2976582e-01
  1.3945771e-06
 -4.4594433e-02
  6.1276239e-01
 -7.6641232e-02
 -2.9125389e-01
 -4.6932191e-06
 -5.0175009e-07
 -9.6254632e-02
  1.7488271e-06
 -4.8269809e-05
  2.8322897e-06
  2.0554007e-06
 -1.1460589e-04
  1.5687910e-05
  7.3522942e-06
  1.3500370e-06
  2.3023110e-06
  9.1004898e-07
  7.3031150e-02
  4.6309214e-03
 -4.6030168e-06
 -5.1568415e-05
  8.0498376e-07
  8.2091208e-07
  3.2542998e-06
  6.3888324e-06
  4.6904834e-06
 -6.2979088e-06
  2.1317843e-02
 -1.6091345e-01
  3.7376155e-06
  1.0117981e-05
  1.4723590e-01
 -3.2148530e-06
 -1.1674770e-01
  4.2173792e-08
 -2.8158274e-06
 -4.4720909e-03
  8.9395479e-07
 -7.9983442e-07
 -2.0884130e-07
 -4.3234874e-07
 -3.2449420e-06
  1.1262250e-05
  2.6311432e-06
  1.1018980e-06
 -7.2010170e-07
 -8.5657518e-07
  8.9439127e-06
 -1.8858319e-06
  2.1730548e-06
  2.6683263e-06
  1.0061605e-06
 -5.5226437e-06
  2.1246989e-07
  1.3636136e-06
  1.7559967e-05
  3.6956919e-07
  2.4345209e-06
  4.6947857e-06
  7.6274870e-07
 -1.5164916e-06
 -5.7323473e-07
 -4.2931488e-06
  2.9691992e-06
  4.8384243e-07
 -2.4367960e-06
 -2.2565789e-06
 -2.8642789e-06
  1.4934987e-07
  5.0373824e-06
  1.4762325e-06
  4.8822752e-08
 -2.7732062e-07
  1.1429572e-05
  4.5897269e-07
  6.0927744e-07
 -7.7756067e-06
  5.6544275e-07
  1.8535408e-06
  4.1551327e-09
  4.8595925e-06
 -8.8508341e-07
 -5.9239346e-07
 -2.4305948e-06
 -4.0712966e-06
 -7.7920487e-07
  6.2611402e-06
  1.0103876e-05
 -4.3947148e-06
  2.1790233e-06
 -3.1680631e-08
  2.8669851e-06
 -2.4934795e-06
 -5.5961718e-06
  4.0703907e-07
  5.4356465e-06
  7.6776269e-07
  1.4538030e-05
  2.8733766e-06
  1.5237969e-06
 -3.1797449e-06
 -2.6089874e-06
  2.1775465e-06
 -8.7391863e-06
  6.4059083e-07
 -2.3816310e-06
 -1.4355061e-07
 -1.0069768e-04
 -1.0642355e-01
  4.1926505e-06
  8.6440730e-07
  3.3579649e-06
  6.3332419e-07
 -5.5737616e-03
  1.2967878e-06
  1.5198186e-05
  4.6472173e-06
  1.6258471e-06
  2.2912055e-02
 -1.8999591e-06
  3.9160218e-06
 -4.8087843e-02
 -4.2336256e-07
  5.5489261e-02
 -1.7844832e-06
 -3.7043554e-07
  1.8642342e-05
  4.5569473e-07
  5.0996391e-07
 -8.2842989e-06
 -2.7810556e-06
  8.5591699e-07
 -7.1165218e-06
  1.3786090e-06
  3.9915262e-06
 -4.7267772e-06
 -2.9782923e-06
  8.4117522e-07
 -9.8424505e-07
  2.6959236e-07
 -2.3170483e-06
 -3.4789821e-06
  4.9389251e-07
  4.7070039e-06
  2.2215497e-06
 -4.7580036e-07
  2.8104321e-07
  5.5694177e-06
  1.0233632e-05
  8.8500548e-07
 -5.6012100e-06
 -2.7746938e-07
 -1.6380368e-06
 -9.4667382e-07
  2.9714024e-06
  4.7307976e-06
 -4.9378564e-06
  4.4224312e-06
 -7.2509619e-07
  3.1993175e-06
  1.4732453e-06
 -9.6871929e-08
 -8.2669349e-06
  5.0943049e-06
  3.0246397e-06
 -1.5195363e-06
 -1.7438867e-06
 -7.5571643e-07
 -1.3062382e-06
  2.6267473e-06
  2.2851884e-06
  4.0928126e-06
  1.2806730e-05
  1.5379309e-06
  2.1436597e-06
  1.3600450e-06
  5.2179998e-06
  2.1972721e-06
  5.0385474e-06
  1.9922009e-06
 -5.3862710e-09
  7.1405393e-06
  4.1652572e-07
 -7.4307763e-06
  3.9225692e-06
 -8.8655897e-06
  1.6396176e-06
 -1.8628646e-07
  6.6355751e-06
 -4.0281623e-08
 -5.6014096e-06
  1.0490940e-05
  4.2259844e-06
  5.5679129e-06
 -7.7962759e-06
 -2.8987299e-06
  1.4948930e-09
  3.2672233e-05
  1.1053444e-01
 -2.1255142e-03
 -8.2875784e-05
  5.0111758e-03
 -7.3984911e-06
  1.1205170e-01
 -5.5866763e-06
  1.7292863e-06
  1.0501847e-06
  7.5416811e-02
 -1.7401524e-01
  2.9901400e-07
 -2.7280707e-06
  1.3013341e-01
 -4.5746524e-06
 -1.4645962e-01
 -4.1334911e-07
 -3.5669559e-06
 -6.4651463e-03
  4.4165754e-06
 -1.8626536e-06
  1.0648463e-07
  3.3207432e-06
  1.5060974e-07
  6.4913888e-07
  3.9755906e-07
  1.0124286e-06
  6.4418214e-06
 -6.5208951e-06
 -3.5077872e-05
 -2.2219097e-05
 -2.4373926e-06
  8.1590761e-09
 -5.2182809e-06
 -2.3770117e-06
  4.9359397e-08
 -3.1264568e-07
  9.3307833e-08
 -5.1755035e-07
 -6.2982776e-06
  1.2914494e-05
 -6.0306627e-07
  2.0011172e-05
  4.3051768e-06
  3.8606177e-06
  2.1654011e-03
 -8.5542382e-07
 -3.4519451e-07
  7.6460201e-06
 -1.1056556e-08
 -6.4673463e-07
  2.5423576e-06
 -3.3119963e-07
  5.1260275e-07
 -2.2317238e-06
 -2.8301747e-07
 -1.0494776e-02
 -1.8474610e-07
  3.0433268e-06
 -5.0231326e-01
 -2.7497921e-05
  5.3214390e-02
  3.2828230e-02
  1.1930662e-01
  2.1296397e-02
  1.0438537e-05
  8.5585070e-06
  6.3551097e-06
  8.8370246e-07
 -4.4323060e-06
  4.3745473e-01
 -5.7833595e-06
 -8.5177368e-07
 -2.3356001e-01
  1.3627221e-05
  3.4011751e-01
 -2.0466155e-06
 -7.1568098e-07
  4.2484553e-06
 -6.6323742e-07
 -2.6739829e-07
 -8.5021129e-06
  6.1271539e-06
 -7.5938635e-07
 -1.6175127e-05
  1.4079067e-06
 -4.6045980e-01
  2.2118205e-05
 -4.3864579e-06
  2.9900992e-01
 -4.4790253e-01
 -4.5009628e-01
 -4.1852757e-01
  8.8207722e-03
 -4.4574514e-03
 -3.8704437e-01
 -1.7242008e-01
 -1.2111734e-01
 -1.1338087e-01
  4.7371027e-01
 -5.5506945e-01
 -1.0582261e-06
 -3.5592612e-02
  1.2869257e+00
 -2.1212003e-01
 -5.3180325e-01
  5.0120138e-06
 -8.6795626e-06
 -2.0527469e-01
  6.0353260e-03
 -3.2574207e-02
 -1.4409586e-07
  1.7774011e-06
 -6.6963010e-02
  8.5540945e-05
  1.3218425e-06
 -8.1242223e-07
  9.4783911e-07
 -1.3884154e-06
  2.1710300e-06
  1.3177071e-06
 -2.6470234e-06
  4.1042611e-07
 -1.6104751e-06
  1.4381411e-06
  1.3678288e-06
 -5.3675922e-06
  2.3114744e-07
 -4.7195385e-06
 -1.8848499e-06
  4.9167111e-06
 -5.2941812e-07
  4.7097765e-06
  6.2217796e-06
 -1.4931164e-06
  5.6601237e-07
  5.8040018e-07
 -4.3495816e-06
  1.3734167e-06
  2.3105952e-07
  4.0760301e-06
 -1.2611623e-06
  1.1193521e-06
  8.8212664e-06
  3.9578069e-08
 -3.8087164e-06
  7.6597316e-06
 -4.7538941e-07
 -7.2182843e-06
 -8.3673456e-07
  1.1280337e-05
  4.0373338e-06
  6.2880849e-07
 -6.2916007e-07
 -1.3197944e-06
 -9.7803877e-07
 -1.5392786e-06
 -5.4546894e-07
 -1.0138955e-06
 -1.9371285e-08
  8.8955549e-06
 -1.2427943e-06
  9.1807681e-07
 -1.0349042e-06
  2.7641543e-06
  1.4992218e-06
 -5.1495813e-06
  4.8135557e-06
 -1.8244200e-06
  5.9438116e-06
  6.6872976e-06
 -1.6902213e-06
  1.9171850e-06
 -1.7321635e-06
 -7.5692475e-07
  2.5623626e-07
  4.2455576e-06
 -1.3015258e-06
  1.3878072e-05
  7.4029623e-07
 -2.1225401e-06
 -1.8324880e-06
  9.0252871e-07
  6.5275196e-07
  1.0855297e-06
 -2.5831259e-06
  4.1066783e-06
  4.8050725e-07
 -1.0394490e-06
  1.0594771e-06
  1.6229518e-05
 -8.2261408e-07
  2.8169484e-06
  1.9549470e-06
  9.3953452e-07
  5.5149013e-07
  1.3351967e-06
 -1.2634976e-06
  5.8025427e-07
  5.3738559e-06
 -5.6080768e-07
  7.0735396e-06
  1.3877458e-06
  1.2318619e-06
  4.9521486e-07
 -1.4499132e-07
  8.0692607e-06
 -7.1115477e-07
 -1.7743242e-06
 -3.9570980e-02
 -1.9135455e-02
  4.8779882e-02
  3.5681065e-02
 -1.0305546e-01
  7.0682942e-04
 -1.3413071e-02
  2.6845430e-05
  2.3889696e-05
  7.4401954e-03
 -1.8432434e-01
  9.9712685e-02
  1.4756789e-06
  1.6965139e-05
 -9.4138160e-02
 -6.2299165e-07
  1.6355500e-01
  5.5974747e-06
  2.7093778e-05
  5.8711130e-02
 -2.2649724e-06
 -4.0428113e-06
  6.9172302e-08
 -5.5055652e-06
  1.2669234e-06
  8.8795076e-07
  8.7934649e-07
 -1.6351553e-06
 -1.0121599e-06
 -5.7204629e-06
 -1.1883227e-01
 -2.0563690e-01
  2.0795676e-05
  4.2044940e-05
 -2.5823888e-06
  8.4512129e-07
  9.7295251e-06
  1.7886630e-06
  1.5035744e-06
  3.1319432e-06
 -1.6616055e-05
  8.8572301e-02
 -3.7889453e-07
  5.9404033e-06
 -4.3655318e-06
  1.1684846e-06
  8.9662895e-02
  4.4264275e-06
  1.4103946e-06
 -6.2955382e-07
  1.6160786e-06
  1.1336722e-06
  5.3313074e-06
  8.9805962e-07
  1.8603248e-06
  9.0286812e-07
  1.6191233e-06
 -5.5666396e-06
  2.7768010e-08
 -4.5578695e-06
 -8.0465992e-07
  1.1148629e-06
 -1.3505264e-06
  1.6304632e-06
 -5.6570793e-06
  1.6162727e-06
  1.4992204e-06
  1.6309310e-06
 -3.3789097e-06
  4.4824774e-06
 -8.1145427e-06
  1.8106178e-06
 -2.3166525e-08
  4.3517966e-07
  1.6320963e-06
  4.2048831e-07
 -1.4082775e-07
  4.1539556e-06
  1.4299816e-05
 -7.9813998e-07
 -8.5679051e-07
  9.6339909e-07
 -3.7510044e-06
  1.1058568e-06
  1.7674471e-06
 -3.0907106e-06
  6.8210221e-07
 -5.1200484e-08
 -3.6055349e-07
 -3.4704740e-06
  2.8889112e-06
 -1.2939553e-06
 -1.2886733e-06
  1.9487252e-06
  4.5097768e-06
  4.3649004e-07
  1.7842572e-06
  1.9732294e-08
  1.5053256e-06
 -1.7181957e-06
 -5.4064931e-06
  4.0643340e-06
 -2.1778405e-06
  4.8348329e-06
  4.4569961e-06
 -7.4921513e-07
  4.8632014e-06
  1.5921665e-06
 -4.5706958e-08
  5.5615828e-06
  5.4666475e-06
 -2.3937923e-06
 -4.6498344e-06
  4.3429088e-07
 -2.0722248e-07
 -2.2742186e-06
  1.6086556e-06
 -1.2217240e-06
  2.0704890e-07
 -1.9073673e-06
 -4.5720067e-06
 -7.1387865e-07
  1.4391527e-06
  1.2484227e-06
 -8.2780656e-07
 -1.4858838e-06
  3.8636144e-06
 -1.6248515e-06
  3.8677950e-07
 -2.6528112e-06
  1.4948084e-07
  1.8301331e-06
  2.8043428e-07
 -1.3623345e-06
 -3.4896223e-06
 -6.0205025e-07
  2.7196638e-06
  1.4477534e-06
 -5.3173490e-06
  1.5958992e-06
  2.8197616e-07
  2.1219125e-07
 -4.8968423e-06
  6.3194116e-06
 -2.7521576e-06
 -4.9841123e-07
 -1.6896345e-06
  8.0412956e-06
 -1.6001095e-06
 -9.9303929e-07
  4.1629010e-06
  1.8993976e-06
 -3.7460989e-06
 -3.5985536e-06
  9.3160515e-06
  1.7403954e-06
 -2.3304221e-07
 -1.6182120e-06
 -9.9657404e-07
  3.3107424e-06
  1.7176008e-06
  1.8687454e-07
  1.0641164e-06
  5.2142782e-06
 -4.5259576e-06
 -3.0923616e-06
  3.9301144e-06
  7.6231066e-07
  1.4563869e-06
  1.7600673e-06
  1.3390154e-06
  1.0365012e-06
  1.2340766e-07
 -1.2436876e-06
  3.6700835e-06
  1.6995601e-06
 -1.4283798e-06
  3.6396716e-06
 -8.2538571e-07
  1.6568545e-06
 -1.9867421e-06
 -5.0998451e-06
 -1.0749416e-06
  5.6699878e-06
  1.3532398e-06
  2.9920689e-06
  5.1014113e-06
  1.7904356e-06
  1.8540860e-06
 -7.1939274e-07
 -1.1694500e-06
 -8.5711963e-06
 -1.6052999e-06
  7.3004117e-07
 -1.7610849e-06
  8.0849964e-07
  1.4331658e-06
 -4.3465311e-06
  1.3491103e-06
 -9.0832941e-07
  9.6914118e-07
 -1.6880250e-06
 -6.3272054e-10
  8.2253723e-07
 -1.8511248e-06
  1.0636603e-06
  1.3762892e-06
  1.6675916e-06
 -1.0360712e-05
 -4.3385326e-06
  1.6054878e-06
  2.7836489e-07
 -1.0568574e-07
 -4.2719294e-06
  5.3074964e-06
 -1.4964779e-06
 -8.7440014e-07
  4.1972598e-06
 -1.0098356e-06
 -1.1471956e-06
 -1.3552861e-06
  4.2572019e-06
  8.0427872e-06
  6.4586279e-06
 -1.2083390e-06
  8.8845836e-06
  1.1231640e-06
 -1.6685683e-06
  2.2038275e-06
 -9.3710996e-06
 -9.9957761e-06
  1.6851670e-06
 -7.0210199e-06
  4.5141965e-06
 -6.7048506e-07
  5.3872759e-06
  1.5779185e-06
 -3.6330262e-06
 -1.1922853e-06
 -6.1805649e-06
  1.3348850e-06
  1.0768978e-06
  7.5648200e-06
  6.8621648e-06
 -2.2515960e-06
  9.2934988e-06
  4.2922571e-07
  3.7424977e-06
  1.4913579e-06
 -9.1209404e-06
  4.7985304e-07
 -1.8833742e-06
  3.8167805e-06
  1.9213178e-06
  1.4345715e-05
  1.7288004e-06
  1.1595533e-06
  1.1192766e-06
 -4.8912972e-07
  1.2378267e-06
 -1.8856497e-06
  3.9522482e-07
  5.5736214e-06
 -1.3646386e-06
  3.1893887e-07
  1.1519063e-06
  4.0757709e-06
 -4.0297382e-07
  1.7724522e-06
 -1.0628527e-06
  1.1518462e-06
  2.6442410e-07
  8.6842510e-06
  1.0593274e-06
 -1.8003669e-06
 -3.9917704e-06
  1.9034896e-07
 -3.6645258e-06
  1.1561221e-07
  1.7731568e-06
 -1.6277504e-06
  1.1485311e-06
 -9.0759304e-06
  6.2110087e-07
  1.7828529e-06
  4.6877156e-07
 -4.7145484e-08
  1.3371714e-06
  1.1403297e-06
  1.7873650e-06
  6.8594964e-06
  1.4315219e-06
 -4.6052676e-07
  4.0370956e-06
 -4.8297744e-07
  4.2180549e-08
  1.6981734e-06
 -1.1363818e-06
 -8.6770171e-07
 -4.9262387e-01
  4.5319539e-01
 -4.9399161e-01
  1.9047351e-01
 -2.9204425e-01
 -1.0641244e-06
  1.4809535e-06
 -6.7230576e-01
  1.5366611e-06
  5.3231583e-06
  8.6099666e-01
 -3.5052288e-01
  5.6323236e-01
  1.0729870e-01
  7.2930533e-07
  1.7262798e-06
  1.3470675e-06
 -5.7173049e-01
  3.9025182e-01
 -4.3523369e-07
  8.8304824e-07
  1.7933339e-06
  1.8881350e-06
 -8.7366880e-06
 -4.2308338e-06
 -3.1415552e-06
 -7.7359050e-07
 -2.0227271e-06
 -4.7615085e-06
  1.2819485e-05
 -3.4414390e-01
  3.3598408e-01
  1.7531675e-01
 -7.4281085e-01
 -2.4106847e-01
  1.8035051e-06
  1.2151210e-06
  2.9360494e-01
  3.4893133e-06
 -1.2653874e-06
 -5.2293581e-01
  1.6400506e-01
  3.4875578e-01
 -9.9070531e-01
  1.5915468e-06
  9.4568662e-07
  4.5202853e-07
  4.6374732e-01
  2.3251359e-01
 -1.2294944e-06
  8.9160386e-07
 -1.1246865e-06
  1.1945260e-05
  9.5319801e-06
 -8.1057982e-07
 -1.7096089e-07
  9.3202716e-06
  4.6954098e+00
 -1.3692497e-01
 -1.9000039e-01
 -1.8254036e-06
 -1.6578663e-06
 -2.0407113e-01
 -2.7413643e-07
  4.3021728e-06
  3.6817473e-06
  6.9068229e-01
 -5.7196576e-06
  2.5300460e-07
 -9.1922066e-06
  4.4569585e-02
 -1.3844767e-01
 -8.2634955e-07
  2.8247001e-07
  1.7500043e-01
  3.3591341e-02
 -2.1519445e-06
 -1.7906038e-06
 -1.6904044e-01
 -2.2048177e-01
  4.0889466e-07
  3.0018932e-06
  3.3536476e-01
  1.7432211e-01
 -2.1198021e-07
 -5.4277507e-06
 -1.0363314e+00
 -2.8383914e-01
 -3.5103849e-07
 -9.3478343e-07
 -1.1096895e+00
 -3.1482270e-01
  1.5020058e-06
 -3.9869150e-07
  5.7155347e-01
  4.5401540e-01
 -2.1364738e-06
 -2.5935713e-06
 -2.9233927e-02
 -4.2961884e-01
  1.1470801e-06
 -9.3596364e-06
 -7.8003418e-01
 -1.7854871e-01
  7.4220816e-07
 -2.0502881e-08
 -1.1116862e-01
  2.1183228e-02
 -3.2183852e-06
 -8.6440826e-07
 -2.0123525e-06
 -1.6459305e-06
 -1.4704919e-01
 -9.2616844e-08
 -1.4023713e-05
 -2.4683195e-07
 -3.8044868e-06
  5.5776495e-06
  1.9681591e-05
  1.7748788e-06
  1.7002681e-06
 -9.9877684e-07
  5.6930144e-06
  7.6926364e-07
 -6.1413396e-02
 -5.9178157e-04
 -1.5300730e-06
 -1.5317867e-06
 -1.7758983e-06
  3.4478953e-06
 -4.6708492e-06
  5.1357879e-06
 -7.3838255e-06
 -7.1209937e-02
 -1.5457658e-07
  4.7286148e-06
  9.5039804e-06
  1.6282904e-05
 -1.1503170e-06
 -5.4148222e-07
 -6.3780040e-02
 -5.0949016e-06
  2.4133410e-06
 -5.4868824e-06
 -4.3740947e-02
 -1.4144322e-01
  2.7287779e-06
  1.0894867e-06
  1.6181436e-03
  1.6913051e-05
 -1.5783168e-06
 -4.7584834e-07
 -7.9893090e-02
 -1.0645290e-05
  1.3822935e-06
  1.5211835e-07
 -9.6414715e-02
 -2.1923119e-01
  1.9981412e-06
 -1.4429794e-06
  1.2708785e-03
 -5.3671229e-06
  9.0115930e-07
 -7.9238407e-07
  7.3581469e-07
  8.2739820e-07
 -4.6188933e-07
 -9.1734552e-07
 -6.1232181e-06
  2.1277577e-07
 -1.6915581e-06
 -8.4500261e-06
 -1.4169335e-07
 -5.4785742e-06
 -5.1235139e-07
  8.2436810e-07
  3.1991992e-06
  3.0789447e-06
 -2.4587202e-06
 -4.2960546e-06
 -1.1481980e-06
 -1.6500021e-06
  5.5636128e-06
 -1.8894472e-06
 -2.4352551e-07
  9.5621351e-07
  4.0471687e-06
 -1.8937716e-06
  1.1748474e-06
  9.1667425e-06
  5.3867831e-07
  1.0778244e-06
 -8.5102909e-07
  2.0144196e-06
 -6.3774573e-06
 -3.2765993e-06
  7.7705079e-07
 -7.6170716e-07
  5.2910941e-08
 -2.7288775e-06
  9.1284704e-07
 -4.0972559e-06
 -9.1493548e-06
 -5.5488965e-07
  3.2483908e-06
  3.3938279e-06
  1.7441509e-06
  4.4594976e-06
 -5.3666781e-07
  8.8530402e-07
 -1.3512739e-06
 -3.5220305e-06
  5.2339021e-07
  1.8686134e-06
  1.5276457e-06
 -2.8080783e-06
  4.5430374e-06
 -9.3497647e-06
  5.6148235e-08
  4.8357316e-07
  1.4900035e-06
  1.5883882e-06
 -1.4831476e-06
 -2.1293975e-07
  1.3260928e-06
  1.3410487e-06
 -1.3714470e-06
  5.3927097e-06
 -4.8788144e-07
 -4.7221724e-06
 -5.0844128e-06
  1.2640365e-06
  2.0693963e-06
  2.2421589e-06
 -4.1001400e-07
  9.0909070e-06
  4.6357022e-06
  1.1660139e-06
  1.7006996e-06
 -2.7385558e-06
  5.0211866e-06
 -4.9992872e-07
  1.3814525e-06
  6.7501463e-07
 -5.6291628e-07
  8.6319119e-07
 -1.4838311e-06
  2.2733293e-06
 -2.1389726e-06
 -1.9335762e-07
  1.7333630e-06
  9.5433984e-07
  1.2555237e-05
 -1.1920165e-06
 -8.4091573e-07
  1.7786542e-06
 -6.6681514e-06
 -7.8783856e-08
 -2.1158314e-06
  7.1596810e-07
  1.3469444e-06
 -1.6247985e-06
 -4.5214497e-06
  4.5281831e-06
 -9.9972340e-07
 -1.2916496e-06
 -4.2324561e-01
  2.3289856e-01
 -3.9635161e-01
  5.7281338e-02
  3.5767102e-06
 -8.1503385e-06
  4.6410469e-06
 -2.3754304e-05
  8.5352504e-01
 -3.2883686e-06
 -7.4454583e-02
 -2.0966759e-02
  4.7767665e-02
 -3.6889316e-05
 -2.6369507e-05
 -1.9504951e-02
  1.5836691e-05
  5.1688935e-06
 -5.5416901e-02
 -1.9994540e-04
  2.6150852e-01
 -3.1021465e-02
  1.1043359e-06
  2.7488610e-01
  1.6356479e-01
  7.1568772e-02
 -2.1674126e-01
 -4.8978174e-01
 -9.8106585e-02
 -4.4850847e-03
  1.2290227e-01
 -2.9733878e-01
  4.8782474e-01
 -6.7210766e-03
  7.0684723e-06
 -6.3143194e-02
  6.6152775e-01
  3.5267952e-01
 -4.7446361e-01
 -6.7218766e-02
 -1.3817664e-02
 -4.5875263e-01
  2.6377237e-01
  4.8362568e-01
 -3.0136058e-01
 -3.6724927e-03
  9.8944306e-03
 -5.9777898e-01
  3.9741859e-02
  1.2600134e-01
 -3.2065141e-01
 -2.6494309e-01
  1.7617059e-01
  5.3945678e-01
  8.1691968e-01
  2.2032626e-01
  9.6544046e-03
  7.7112333e-07
  4.9234316e-01
  1.0675165e-01
  4.9401861e-02
  4.3266672e-01
 -1.8487164e-01
  1.4434104e-01
  2.4921000e-01
 -1.4110450e-02
  1.5274435e-01
  9.2822039e-01
 -6.6760629e-02
  2.8878185e-01
  3.7163892e-01
  7.6381755e-01
  1.2648605e-01
 -2.5061397e-02
 -5.8600956e-01
  2.6158276e-01
  1.6528765e-02
 -1.2910159e-01
 -3.0274987e-01
 -2.9374227e-01
  5.2466366e-02
  7.2466595e-05
  9.7559732e-01
  1.0880839e+00
  1.6302678e-01
 -2.4818992e-02
 -3.7555632e-01
 -5.6365080e-04
  1.3132507e-01
  6.5781319e-01
  4.6684712e-02
  6.9496863e-02
 -3.1686601e-01
 -2.7264771e-06
  1.9256668e-06
 -4.1948624e-05
  5.9341204e-01
  3.4605376e-02
  1.8407419e-01
  1.1176950e-02
 -3.8832566e-01
 -6.9846481e-01
 -3.7892647e-02
  1.2614200e-01
 -6.0907178e-02
 -3.7300229e-01
 -1.7965559e-06
  1.1133189e-01
  2.4025312e-01
  3.3856422e-01
  2.7870864e-01
  2.3475394e-02
  7.0401549e-01
  4.1728264e-01
 -4.1153732e-01
 -3.0336043e-01
 -3.7152573e-01
 -4.6448824e-01
  2.2600016e-01
  5.9407270e-01
 -3.7220919e-01
 -3.3115156e-02
 -1.7195196e-04
 -1.1629060e-01
  4.4760326e-01
  1.3097985e-01
  6.3328928e-01
  3.2962191e-01
  2.2636368e-06
  1.1874756e-01
  3.8010064e-06
 -2.7290705e-06
  6.1023585e-02
 -1.8629423e-01
  2.9406351e-01
  3.1143558e-01
 -4.8668680e-01
 -4.2544957e-02
 -2.3224680e-02
  3.2773203e-01
 -2.2007565e-01
  2.1117580e-01
  9.5324533e-05
 -9.3329197e-04
  1.8261978e-01
  4.2081974e-02
 -1.4077201e-01
  2.1966612e-02
 -2.4102303e-01
 -5.3510010e-01
 -2.0497888e-01
 -4.7041172e-01
  1.4854617e-01
  7.1824151e-01
 -3.1857494e-01
 -5.1571172e-01
 -7.6788500e-02
  2.9407653e-01
  3.2866189e-01
  2.9996490e-01
 -9.4658363e-01
  3.1993413e-01
  5.1263660e-01
 -1.6385189e-01
 -4.1132256e-01
 -7.8724366e-01
  1.2281589e-01
  2.0658763e-01
  4.6498749e-01
 -4.8746959e-05
 -1.2950743e-02
  1.5374202e-01
  2.8305581e-01
 -7.7390671e-01
 -1.5543020e-01
  1.4234061e+00
  1.2275852e-01
  6.5427202e-01
 -4.3263078e-01
 -5.3365177e-01
 -6.3902453e-02
 -1.0681180e-01
 -1.3821451e-01
 -3.7350912e-02
 -1.0526291e+00
 -8.0742401e-01
  1.3291866e+00
  2.0211111e-01
  8.2912892e-01
  5.8910739e-01
 -4.9584115e-01
 -8.5161030e-01
  6.9046301e-01
 -7.8955718e-04
  1.9136526e-01
  4.6172464e-01
  3.6520508e-01
  2.5720137e-01
 -2.0327862e-02
 -3.8635519e-01
  1.4634215e-06
  6.9087967e-02
 -1.0745101e-05
  3.8104411e-06
 -1.2735933e-01
 -1.1311708e-01
 -1.3949743e-01
 -5.7523918e-01
 -4.8438856e-01
 -3.7060562e-01
 -5.8268321e-01
  7.3778719e-02
  1.8967947e-01
  5.8967553e-02
 -3.6353049e-01
 -2.6807258e-01
 -1.6936088e-01
 -3.7181002e-01
  6.8224815e-04
 -2.6815349e-02
  3.0485663e-01
  3.4893364e-01
  2.1523215e-01
 -6.2318306e-02
 -3.5971017e-03
  1.7951582e-01
 -1.4968872e-01
 -1.3137577e-01
 -3.3295378e-03
 -5.4599755e-02
 -2.1149702e-01
 -3.0708959e-04
  4.1520782e-02
  4.1520782e-02
  4.1520782e-02
  4.1520782e-02
  4.1520782e-02
  5.5582318e+00
  5.5582318e+00
  5.5582318e+00
  5.5582318e+00
  5.5582318e+00
  2.4501269e+00
  2.4501269e+00
  2.4501269e+00
  2.4501269e+00
  2.4501269e+00
  1.2408813e-01
  1.2408813e-01
  1.2408813e-01
  1.2408813e-01
  1.2408813e-01
  1.0266630e-01
  1.0266630e-01
  1.0266630e-01
  1.0266630e-01
  1.0266630e-01
  1.0087080e+01
  1.0087080e+01
  1.0087080e+01
  1.0087080e+01
  1.0087080e+01
