nep4 2 Ge Sn 
cutoff 7 5 63 28
n_max 4 4
basis_size 12 8
l_max 4 2 0
ANN 30 0
  2.5688676e-05
  1.8907671e-05
 -3.3186636e-05
 -1.3817360e-05
 -4.4411048e-01
 -7.1649146e-01
 -4.8369595e-01
 -4.7115135e-01
 -1.0387529e-02
 -1.6010538e-02
 -5.5378407e-02
 -9.6231885e-02
  7.9723955e-05
  3.2663432e-01
 -1.3560538e-01
  1.8550513e+00
 -4.9625098e-04
 -1.3869671e-04
 -4.9463324e-02
 -7.2242525e-05
  8.6520277e-02
 -9.3927752e-05
 -1.0309475e-05
  2.3557068e-05
 -4.9052393e-05
 -9.4692543e-02
  3.1181794e-04
  1.3622861e-04
  2.9995048e-05
  1.2934580e-04
 -6.3654465e-05
  1.0596967e-04
  2.0634130e-05
 -1.0703336e-05
  5.8094745e-05
 -4.5368604e-05
  8.5002248e-05
  5.3690446e-06
  1.9849451e-05
 -2.0273166e-05
 -7.6122335e-05
  8.7979613e-05
 -1.2293934e-05
  7.4281115e-06
  1.0584568e-04
  5.9307404e-05
 -1.0926045e-05
  3.0761286e-05
 -6.7645724e-06
 -7.1181727e-05
  5.7511515e-05
  6.2642684e-05
  1.1321288e-04
  2.8307961e-05
 -7.7324774e-05
 -1.4968665e-04
 -5.2128809e-05
 -1.6909618e-05
  5.6007448e-05
  2.8190527e-05
 -5.0283001e-05
 -2.5653324e-05
  2.0855787e-06
 -1.2561890e-05
  2.1029497e-04
  6.9289272e-05
 -9.7533528e-05
  6.8471978e-05
  3.2638363e-05
 -5.2084477e-05
 -1.1181357e-05
 -5.1113850e-05
  4.4666217e-06
 -8.1126680e-05
  1.2800784e-04
  1.6638358e-05
 -4.3178225e-05
  1.4126024e-04
  1.0015845e-04
  1.7657900e-05
  5.7060646e-05
 -2.3203405e-05
  3.1295025e-05
  2.0388481e-05
  6.2833351e-05
  9.2235323e-06
 -3.3546974e-05
 -3.7848749e-05
 -9.6164527e-05
 -6.5753491e-05
 -4.9200175e-05
 -8.1554190e-06
 -3.5453282e-05
 -2.3307328e-05
 -8.1787504e-05
 -1.2326271e-04
 -4.7246624e-05
  1.3624334e-05
  2.8805764e-05
  6.1386192e-05
 -5.9547892e-06
  1.7188247e-06
  1.8862178e-05
  2.3760225e-05
  6.4034393e-05
 -1.2341714e-05
 -1.4454271e-05
  8.4016237e-06
 -9.4563948e-05
 -1.7290421e-04
  5.2818537e-05
 -5.9947541e-07
 -7.8421632e-05
 -3.9207061e-06
  1.0512166e-05
 -1.8898322e-04
 -1.6005100e-04
 -9.1336497e-06
 -8.0380341e-05
 -1.3396278e-04
 -2.7952785e-05
 -3.9534771e-06
 -1.2871489e-04
  1.1077969e-04
 -7.6288452e-05
  8.0253049e-05
 -5.8849505e-06
  4.4210887e-05
 -2.2425196e-05
 -1.2649407e-04
 -6.2210875e-06
  3.4574564e-06
  7.0929251e-05
 -1.2563266e-06
  5.5320052e-05
  3.7207061e-05
  1.0339924e-04
  1.1451937e-05
 -4.1597978e-05
 -4.3672080e-05
 -1.3669022e-06
 -7.4233976e-05
 -8.7313165e-05
  9.1144328e-05
  7.0300142e-05
  1.0555506e-05
 -1.1222382e-05
  1.6997110e-04
  3.4688106e-05
 -3.5993835e-05
 -7.8749050e-05
 -2.0887306e-05
 -6.2267813e-05
  5.4812121e-05
  7.9713009e-02
 -4.6819702e-02
  2.3387799e-03
  1.3974559e-02
 -1.1063081e-05
  2.1437822e-04
 -1.0904182e-02
 -6.0526112e-05
  9.8202554e-06
 -7.4110478e-03
  6.4579822e-02
 -9.4774269e-02
  1.5625928e-05
  3.4675047e-06
 -2.5236375e-05
 -1.7448861e-05
  3.9901177e-05
 -2.1637883e-05
 -3.3746255e-05
  8.0380727e-05
 -7.7101926e-05
  1.5428796e-04
 -1.2911206e-04
 -2.4670273e-05
 -5.8525649e-05
 -5.7140704e-05
 -2.5693864e-06
  1.6023827e-05
 -1.4254192e-04
  6.3320294e-07
  2.1423992e-05
  2.4170746e-05
  1.2938023e-04
 -5.0465449e-05
  1.4135783e-04
 -1.7067608e-05
 -4.7508416e-05
 -1.3723913e-05
 -8.9374160e-05
 -1.0650593e-05
 -8.3154271e-05
 -5.4187196e-05
 -2.1701226e-05
 -8.0891868e-07
  1.0701784e-06
  4.4697852e-05
 -1.6257090e-06
 -1.1630702e-05
  4.0883883e-06
  2.1005389e-05
 -1.1148033e-05
 -3.4708948e-05
 -1.9673401e-04
  1.2024868e-04
 -2.3886512e-05
  1.9272913e-05
  4.2350031e-05
  3.3223489e-05
 -1.3651740e-04
  1.4201048e-05
  5.0664181e-01
 -2.8758538e-01
  1.5026490e-01
  2.7625662e-01
  8.5243113e-02
  4.7756210e-02
  2.6786268e-01
  5.8875226e-05
 -9.3523294e-02
 -2.3570937e-01
  2.6645035e-01
 -5.6102532e-01
  1.6075708e-03
  1.0209656e-04
  3.7280485e-02
 -5.7491219e-05
 -2.4536025e-02
  7.1759841e-06
  5.7517696e-05
 -2.2319113e-04
 -1.8262982e-04
  2.8573029e-02
 -9.0331776e-04
 -1.8643264e-05
  5.8583704e-05
 -3.8998754e-04
  4.7581657e-06
 -1.6719331e-04
  4.8120801e-05
  4.8352747e-05
 -6.6805726e-05
  1.3863769e-05
  4.3063057e-05
 -1.8845481e-05
  4.7088994e-05
  3.6988884e-05
 -5.4697361e-05
  5.5477216e-05
  2.7082517e-06
  1.0011819e-04
 -1.8291375e-05
  1.0852527e-04
  3.8858714e-05
 -4.8652419e-05
  3.8812184e-05
 -8.7535765e-05
 -8.1166982e-05
  1.3030118e-06
 -4.3967898e-06
 -1.6739519e-05
 -1.5494483e-05
  1.1194906e-04
 -5.0625986e-05
 -3.9855087e-05
 -1.5200139e-04
  9.9335523e-07
 -9.0248679e-05
 -1.7842665e-06
  1.2420011e-05
 -7.3408655e-06
  1.1292408e-04
  6.8337082e-05
  8.5481479e-06
 -9.5818221e-05
 -3.7892119e-06
 -1.3902850e-05
  2.2926935e-05
 -1.6067888e-05
 -1.8063756e-06
  5.3852473e-06
  1.5176866e-05
 -1.4315271e-05
 -4.9176022e-05
 -1.2860385e-04
  9.7039174e-06
 -2.2685295e-05
  2.1213449e-05
  1.0936562e-04
  4.4708373e-05
 -6.0709503e-06
  3.5427438e-05
 -3.0558826e-05
 -3.1280526e-06
 -2.0223331e-05
 -2.3781691e-05
  5.1695119e-05
  6.6546723e-05
 -9.9111065e-05
 -2.0086109e-05
 -9.2150018e-05
 -8.5890166e-02
  1.8203001e-02
 -3.3092082e-03
 -1.8551938e-02
 -1.2443814e-04
 -4.6472327e-05
  2.2934915e-02
  2.7173405e-06
 -4.2331907e-05
  9.8517900e-03
 -3.1643800e-02
  3.4256366e-01
  2.4963323e-05
 -5.3749213e-06
 -1.6309337e-05
  1.6208259e-04
 -5.7350728e-05
  1.9568544e-05
 -1.7618494e-04
  1.2287030e-04
 -1.1674711e-05
 -1.4982808e-04
 -2.4665735e-05
  1.0991505e-05
 -1.2631176e-05
  7.9376499e-05
 -7.3266194e-05
  2.7706978e-05
  3.7835980e-05
  7.7101999e-05
  1.4166859e-01
 -1.6606295e-02
  2.4665054e-02
  3.6897138e-02
  2.7988269e-03
 -2.7298462e-05
 -1.9432107e-05
 -1.1334278e-05
  6.2979848e-06
 -1.6377944e-02
  5.5161685e-02
 -2.3493247e-01
  6.3302046e-05
  7.8527737e-05
  2.9765457e-05
  2.2586275e-06
 -1.2350015e-05
  2.7475075e-05
  1.2392794e-05
 -1.8676181e-05
  1.7864062e-04
  2.5145031e-04
 -7.0659204e-05
 -4.1228541e-06
  1.5764810e-05
 -7.5020485e-05
 -4.1957435e-05
  2.9616764e-05
 -2.0163463e-05
 -9.6971544e-06
 -3.7024980e-05
  1.2718217e-05
  3.4238474e-05
 -1.1148137e-05
  9.1338756e-05
 -1.6301301e-05
 -1.9572761e-05
 -1.3358250e-05
  1.0418606e-05
  1.8780895e-05
 -1.3920722e-05
 -2.5284334e-07
 -2.8680497e-05
  8.2822644e-06
  1.6157304e-05
  6.4447217e-05
  4.7719775e-05
  1.9131142e-04
 -1.9421442e-04
  2.4017525e-05
 -3.1447893e-05
  5.7709316e-05
  5.9428217e-05
  1.6057982e-05
 -3.3103664e-05
 -7.7885761e-07
 -1.6725631e-05
  1.2699713e-04
  5.4832355e-05
  3.2476721e-05
  4.1954713e-06
 -6.1570165e-05
 -1.0497303e-06
 -2.8990014e-05
  5.0133185e-05
  4.5488669e-05
  2.4514090e-06
  5.8336525e-05
 -6.0448278e-05
 -6.0906550e-05
  1.0655103e-05
  5.4847711e-05
 -4.0794654e-05
  1.4648319e-05
 -6.9549860e-05
 -6.9286143e-05
  3.7884831e-05
  2.0364119e-05
 -1.8908781e-06
 -3.4417833e-05
  6.4302702e-05
  6.2555227e-05
 -2.1511152e-05
 -8.1306480e-06
  3.3558281e-05
 -2.5506361e-06
  4.7345340e-05
 -4.7165831e-06
  1.3317706e-04
  1.5896396e-05
  3.9147504e-05
 -5.8108704e-05
  8.3636973e-05
  4.6349884e-05
 -6.0839040e-05
 -2.2386639e-05
 -5.0787901e-05
  1.4958116e-05
  2.5417832e-05
 -3.8996142e-05
  7.6209326e-05
  4.2782809e-05
  7.3649808e-06
  1.0735638e-05
 -2.0112224e-05
  1.0067178e-04
  2.5107413e-05
 -4.7815684e-05
 -1.2014765e-05
 -1.5115277e-04
  1.6863840e-05
  9.5889627e-05
 -2.9679506e-07
 -8.4535313e-05
  5.1114737e-05
 -4.4454529e-05
 -6.5512417e-05
  7.7737895e-06
  6.4954111e-05
 -8.2003950e-05
  5.4645830e-06
 -1.3848978e-04
 -1.0622433e-06
 -2.3309625e-05
  4.0534655e-05
  5.3254604e-05
 -8.2939132e-06
 -4.3319713e-05
  4.8004536e-06
 -8.6600430e-06
 -2.3913803e-05
 -7.0765840e-05
 -6.7756002e-05
  1.4256523e-04
 -2.8484035e-05
 -1.5485023e-04
  1.1144597e-05
 -2.1587812e-06
  5.0533299e-06
  1.7137652e-05
 -4.0763036e-05
 -1.8680748e-05
  5.6145014e-05
  8.4269486e-05
  8.8740002e-05
  1.8454042e-05
 -1.6695924e-06
  1.4979081e-04
 -1.2758188e-04
  6.1481165e-05
  2.0189013e-02
 -1.4635155e-04
 -2.5126357e-05
  4.3376765e-04
 -7.0558212e-06
 -6.2613640e-06
 -3.6948174e-02
  5.9288530e-05
 -3.4332322e-04
 -1.8020958e-03
  7.8624489e-06
  5.2246189e-05
  1.0297729e-04
  9.6732190e-05
  5.0752697e-05
  4.0294370e-05
  2.3294571e-05
  7.4482778e-05
 -7.1581278e-05
 -3.9630413e-05
  2.8861843e-05
 -3.1653908e-05
 -6.4182641e-06
 -7.1890419e-05
 -8.3429157e-05
 -1.7042954e-06
  1.8122664e-05
  6.3957443e-05
  3.7389553e-05
 -1.0057459e-04
  1.0093505e-05
  6.7093342e-06
 -1.0547342e-04
 -7.1840979e-05
 -3.5218349e-05
  1.0643645e-04
  2.9364037e-05
  1.4838655e-04
 -2.7605616e-05
  7.2895564e-05
 -2.3874507e-05
 -3.4349327e-05
 -3.5493715e-05
 -3.7051570e-05
 -4.2255611e-05
 -6.0666448e-06
  7.3762181e-05
  7.4914802e-05
 -3.6075369e-05
 -1.2507310e-04
 -2.0035766e-05
 -7.4686439e-05
 -5.5781752e-06
  3.3345215e-05
 -1.9692974e-05
  5.5905266e-06
 -1.4044494e-05
 -8.3889481e-06
  1.7070552e-06
  1.4412659e-04
 -4.3149896e-05
 -7.9096637e-05
  2.3403867e-05
 -1.3200936e-05
 -4.4005951e-06
  9.0337009e-05
  8.5839729e-06
 -2.4247947e-06
 -7.1872232e-06
  3.4629365e-06
 -7.4598734e-05
  1.0311860e-04
 -1.7461892e-04
 -6.0035800e-06
  4.6871977e-05
 -1.0844297e-04
  5.6131779e-05
 -4.0905772e-05
  5.2656592e-06
 -6.0968043e-05
  1.1161361e-06
 -1.3827107e-05
  1.2211097e-04
  1.3701454e-05
  4.4504650e-05
  5.7723460e-05
  8.7130102e-05
  7.3353854e-06
  1.1829115e-07
 -8.1873572e-05
 -6.1636488e-06
  1.5301644e-05
 -1.2499199e-05
 -8.2510604e-05
  5.2891191e-05
  1.5421459e-05
 -3.9539791e-06
  5.6462959e-05
 -2.2302996e-04
 -2.5235078e-05
 -3.4179579e-05
  1.1395819e-04
  5.3789121e-05
 -8.0611077e-05
  4.2751744e-05
  8.1294296e-05
  9.2206559e-05
  1.2691094e-05
 -1.2017723e-06
 -2.0654532e-05
 -6.9496614e-06
 -4.4618642e-05
 -3.7868398e-05
  8.0602258e-06
  1.5166852e-05
 -3.0482435e-04
  3.1092462e-05
 -1.9111756e-04
 -9.0950534e-06
  5.8860183e-05
 -1.2009201e-05
 -7.7302677e-05
 -3.8704358e-05
 -3.5344299e-05
  4.9131668e-06
  6.1273502e-05
 -1.0758795e-06
  3.4098142e-05
  2.1782539e-06
  2.4066224e-04
 -1.1179515e-04
  2.9420926e-05
  4.3166139e-05
 -4.9856437e-05
  9.8004115e-05
  3.4185490e-05
 -5.7262005e-06
  2.1724034e-05
  1.1478587e-05
  1.3967308e-04
 -3.4417513e-05
 -8.5783286e-05
 -3.4212210e-06
  1.6484698e-04
  4.4727643e-05
  4.9087117e-05
  2.1863872e-05
  1.3821040e-05
 -3.2283533e-06
 -1.5517212e-04
 -1.5463924e-05
  3.2216344e-06
  1.0469419e-05
 -1.7877519e-05
 -4.4488090e-05
  1.9222007e-06
  4.2854466e-05
  1.1598821e-05
  1.5526118e-04
 -1.2369666e-04
 -6.1400184e-05
 -5.0775183e-05
  1.0690704e-04
 -4.2821961e-05
  7.2984825e-05
 -1.4208994e-06
  3.9978171e-05
  2.3252176e-05
 -2.3441688e-05
  4.8406450e-06
  6.3253196e-05
  4.1620278e-06
  7.5017808e-05
  1.9151266e-05
  5.4682114e-06
 -1.6956429e-04
  8.2286992e-05
  1.5438607e-04
 -4.0471376e-05
  6.9426055e-06
 -1.4763692e-05
 -3.7884791e-05
 -7.7602330e-05
  1.1074315e-04
 -4.1990705e-05
 -7.7701836e-05
 -1.1436413e-04
 -5.1853516e-05
  1.2132669e-05
  5.3660726e-05
  5.6548230e-05
  1.0256165e-05
  1.4721202e-05
 -4.3103400e-06
 -3.8094568e-05
 -4.1427302e-05
  7.1341547e-06
  4.5182546e-06
  1.0504238e-04
  6.0081624e-05
 -1.5134914e-05
 -1.1636190e-05
  4.9504791e-07
  2.9533037e-05
  6.7581703e-07
  4.9933187e-05
 -8.4202416e-05
 -2.8101967e-05
  2.5946627e-05
  2.7940188e-05
 -3.8891223e-01
  2.1403812e-01
 -2.5211659e-01
 -2.6164535e-01
 -1.1639436e-01
 -8.8662401e-02
 -2.3789006e-01
  8.3412684e-05
  9.4780758e-02
  2.0696284e-01
 -3.5081196e-01
  4.6858105e-01
 -9.7253191e-04
  1.0816635e-05
 -1.0130652e-01
 -1.8012067e-04
  1.8253936e-02
 -3.2542226e-05
  2.2357020e-05
  1.0530451e-04
  2.6446272e-05
 -4.1890819e-02
  1.5132948e-02
 -9.1078709e-06
 -7.0278998e-05
 -1.0734399e-05
 -1.2255118e-05
 -5.0424842e-05
 -2.4624032e-05
  2.0002256e-04
  1.9593639e-05
 -1.0732166e-04
  3.0428140e-05
 -2.5234915e-05
 -1.7371134e-05
 -7.5269920e-05
  1.8343762e-06
 -7.1103721e-05
  1.1406504e-05
  9.1907845e-05
  1.2284952e-05
 -3.1851378e-06
  9.8221262e-06
 -9.3559793e-05
  5.0584698e-05
 -2.8552742e-05
  2.0458221e-05
 -8.3179213e-05
 -5.0268205e-05
  1.1449204e-05
 -2.1576619e-05
  4.7924903e-05
 -4.0025438e-06
 -2.0892467e-06
  1.8645042e-05
  9.9952003e-06
 -7.9784149e-05
  3.4710996e-05
 -4.0072082e-06
 -7.5858607e-06
  2.4222216e-04
  1.7719751e-05
  4.4089757e-05
  1.3314217e-05
 -2.6796220e-04
 -4.1474883e-05
 -6.7813216e-06
 -1.4695394e-05
 -3.0084723e-06
  7.0072119e-06
 -1.4785860e-06
 -1.8975542e-04
  1.2065179e-04
 -1.0879026e-04
 -7.1254221e-06
 -5.2167303e-05
 -3.8907230e-05
  8.5779204e-05
  7.9981721e-05
  4.3354819e-05
 -8.4327607e-05
 -2.1011145e-05
 -6.3347866e-06
  8.7158471e-05
  7.0933274e-05
  1.2421541e-05
  1.1348975e-06
  2.8328894e-05
  4.9554756e-06
  5.4990884e-05
  1.3210589e-05
 -6.3377711e-06
  5.1379120e-06
  4.6806876e-05
 -4.6746547e-05
  4.7311300e-05
  4.7434904e-05
  9.1254064e-05
 -1.1098174e-04
  6.4738397e-06
  3.3280976e-05
  4.3535263e-05
  5.6536359e-05
 -3.6884951e-05
  1.8049434e-07
 -2.4212710e-05
  8.7704229e-06
 -1.5332151e-04
  2.0378306e-05
 -2.1982607e-05
 -3.1375501e-05
  4.5387213e-05
  1.0689695e-05
 -4.6837573e-05
  1.5050059e-04
 -2.4764309e-05
  3.1829346e-05
 -2.3768895e-05
 -2.4465114e-04
 -1.5432452e-04
  4.8233790e-07
 -1.3078741e-05
 -1.1074154e-04
  1.0032476e-04
 -2.6532889e-05
 -1.9514626e-05
  1.9771265e-05
 -3.2420190e-05
 -4.4866283e-05
 -2.3802988e-06
  7.7035736e-05
  5.3529173e-05
  7.0449169e-06
 -9.8199140e-05
 -5.1016534e-05
 -1.1974242e-05
 -6.8190566e-05
  3.4892014e-06
 -1.0938398e-04
  7.2258510e-05
  3.3952128e-05
 -8.9469559e-06
  2.3051376e-05
 -1.7348504e-05
  7.7562079e-05
 -2.0142646e-05
  5.1696388e-05
 -5.2733896e-05
 -5.2175954e-05
 -6.3959778e-05
  3.4650780e-05
  8.0469130e-05
  5.4435139e-05
 -1.0520830e-05
 -9.2473701e-06
 -8.8452027e-05
  8.6915774e-05
 -2.1693857e-04
 -4.7463482e-06
 -4.3830660e-05
 -1.4472852e-04
  1.8259479e-05
  1.0049985e-05
  6.4241496e-05
  7.4489086e-05
  8.8098368e-06
 -6.2921035e-06
  3.6200279e-05
 -5.4461929e-05
 -3.4090448e-05
  5.0708474e-07
  3.8936218e-05
  1.1686415e-05
  1.4749576e-05
  1.4363028e-05
  6.2414749e-08
 -3.1032723e-06
 -9.2533861e-05
 -1.1222966e-04
  8.5641459e-06
 -2.4857474e-05
  7.5523858e-05
  3.6956255e-05
  2.3828990e-05
  5.9892336e-06
  5.2678235e-05
  4.1536630e-05
  1.5344776e-05
 -1.1969058e-04
  2.9064018e-05
 -1.4760517e-05
 -1.4232131e-05
 -2.9341139e-05
 -2.6813757e-05
  3.5025674e-05
 -4.6340665e-05
 -7.3319628e-05
 -7.5155665e-05
 -1.5800651e-05
 -1.4766349e-04
 -8.9954658e-05
 -7.7756886e-05
  7.3742798e-05
 -4.2436509e-06
  5.2768130e-05
 -7.2748277e-05
  4.6324164e-01
  7.6813107e-05
  6.7253241e-05
 -6.1072591e-05
 -8.2489976e-05
  1.1982583e-01
  3.8049770e-05
 -1.6791829e-01
 -2.3419689e-05
  6.9432470e-05
 -8.1468798e-02
  1.3759793e-01
 -1.1378708e-05
 -3.9077522e-06
  1.9064335e-04
 -1.7040693e-04
 -2.2410801e-02
  1.1882284e-05
 -7.5562602e-06
 -3.2951466e-05
 -1.3915155e-05
 -6.2415653e-05
 -1.1239516e-05
 -1.7442034e-01
  8.6790888e-06
  8.9025207e-06
 -2.9046632e-06
  2.6436330e-05
 -1.5620853e-05
 -6.4459178e-05
 -5.0154108e-01
  2.3339752e-03
  1.7509768e-05
  4.8668753e-06
 -4.1228337e-05
  1.9948824e-01
  8.7430826e-06
  4.9069202e-01
 -1.7330438e-05
 -4.4630335e-05
 -2.0010461e-01
  2.2514121e-01
  6.2501857e-07
 -4.9421898e-05
  2.9442757e-05
 -2.8714223e-05
  1.3204886e-01
 -1.0540433e-05
 -1.4593414e-05
  1.0491564e-04
 -1.2558843e-05
 -3.8807448e-06
  4.5536060e-05
 -5.6105554e-01
  6.3819658e-05
 -1.5791216e-05
  1.0011753e-04
  1.7211286e-04
  3.0582174e-05
 -2.7594670e-05
  2.5191530e-05
  3.9766937e-06
 -4.1713536e-04
 -1.4001077e-05
 -1.2513451e-06
  5.8188903e-05
 -6.8895852e-06
  4.7708225e-05
  6.8725974e-05
  2.0771047e-04
  1.7228633e-05
  1.1743302e-04
  2.7415679e-05
  1.7529204e-05
 -3.2914613e-08
  1.8238265e-05
 -7.2580871e-05
  5.1502699e-05
  1.6931432e-05
 -1.0583397e-05
  1.7660411e-06
  2.7744472e-05
  1.8600996e-04
 -2.1966000e-05
 -2.9848043e-05
 -7.6758324e-06
 -7.2477109e-05
  4.9303549e-06
 -1.4792022e-04
  1.5679685e-06
  7.8502344e-06
 -6.5019138e-02
 -1.1463005e-05
 -2.9542170e-02
  2.2424736e-04
 -2.5118512e-01
  6.2549945e-05
 -4.6931893e-02
  5.6939416e-02
 -1.5852417e-01
 -7.2074078e-02
 -7.4162645e-06
 -3.4345791e-02
 -9.9124566e-02
  6.8587076e-05
  1.0999737e+00
 -1.6165669e-04
 -3.2876105e-05
  7.5044351e-05
 -1.0823622e-01
 -1.4091913e-04
 -6.7107881e-05
  2.5710091e-05
 -7.2617229e-07
  3.4482139e-07
  9.7757311e-07
 -5.2414121e-05
  1.1705878e-03
  3.4206983e-05
 -1.9257245e-04
  5.6032026e-05
 -1.9927138e-04
 -1.8482844e-04
  6.9196700e-05
 -2.6603384e-05
 -5.0924427e-06
 -5.9582318e-05
 -5.5002234e-05
 -9.7662807e-05
  6.2002058e-05
  7.9817677e-05
 -6.0470767e-05
  3.0031592e-06
  1.7164472e-04
  6.6869099e-05
 -1.1543671e-01
  1.1380490e-06
  3.6599840e-06
 -4.1978619e-05
  1.1744808e-04
  1.2803820e-04
  2.6199712e-05
  4.9192902e-05
  5.1774703e-05
  1.3483915e-05
  5.8737904e-05
  5.3960107e-06
  1.4993381e-05
 -5.1742736e-06
 -3.8030470e-05
  6.7405628e-05
  2.6515039e-05
 -3.6875826e-05
  8.6670298e-05
  2.5775833e-05
  3.0245988e-07
  3.2511278e-05
  3.1055366e-05
 -1.7043638e-05
 -1.1843429e-04
 -1.2641371e-04
  2.3465451e-05
 -4.6614070e-05
  6.3759246e-05
 -4.7664307e-06
 -4.2389515e-06
 -5.3821204e-05
 -4.4809280e-05
 -7.5404147e-05
 -1.6036747e-05
 -2.6731726e-04
  7.1659615e-06
 -8.8098961e-05
 -7.0422488e-05
 -1.0156080e-04
  5.2518491e-05
  5.9896178e-05
  3.5493249e-05
  2.2304801e-05
  4.5734036e-05
  1.0596734e-05
 -2.3391334e-05
 -1.7533090e-05
 -1.2297224e-04
  3.2295680e-05
 -4.5390088e-06
 -1.7723689e-05
  9.3842782e-06
  3.0569856e-05
 -2.0589741e-05
  9.1467416e-05
 -2.6168871e-05
 -7.5210977e-05
  1.1288212e-04
  1.5970573e-04
  1.0201288e-04
 -1.3549859e-04
  4.7205500e-05
 -1.0295090e-05
  3.3782529e-05
  7.4442818e-05
 -8.2664101e-06
  1.6374321e-05
 -1.9540472e-05
  7.8619865e-05
 -9.4759023e-05
  5.2786756e-05
  8.2459097e-05
 -1.9255214e-05
 -2.3953791e-05
 -5.9696558e-05
 -4.8669608e-05
 -4.4765522e-05
 -1.3188172e-02
  2.4644005e-05
  1.2786167e-04
  4.4069107e-05
 -4.7043741e-05
  4.6363330e-05
  1.9471017e-05
 -1.5398522e-03
  1.4188789e-05
  1.2076817e-05
 -1.8665643e-04
 -5.4240667e-05
  1.2841177e-01
 -5.6083431e-05
 -2.8919136e-05
  9.4785755e-05
  3.0696145e-05
 -4.5199781e-06
  8.6761029e-05
  1.2470898e-04
 -1.0269482e-05
 -1.1515594e-06
  3.0027335e-05
  1.0537905e-04
  8.0806640e-05
  2.6114525e-05
 -1.7705323e-04
 -7.9496342e-05
  1.5156632e-04
  4.4229750e-05
  8.4985106e-05
 -3.1458643e-05
  3.2641925e-05
 -5.2516622e-05
  1.9041666e-04
 -3.3751735e-04
 -3.8523198e-05
  1.1046322e-04
  6.8972724e-05
 -9.3952578e-05
 -1.7105060e-05
  3.7228763e-06
  1.6778928e-05
  1.0416512e-05
  4.4707827e-05
 -3.6655958e-05
 -6.2595151e-05
  5.0111821e-06
  3.1705076e-04
 -3.7053112e-05
  4.2437590e-05
  3.9472587e-05
  1.0581371e-05
  1.6142103e-05
 -1.0382411e-04
  4.5801298e-06
 -1.3879742e-04
  3.8470034e-06
  4.5144232e-03
  4.4832319e-05
  1.6723546e-01
 -4.2529795e-05
  1.2586251e-02
 -6.9660746e-05
  1.1421926e-01
 -2.8236929e-01
  3.8155165e-01
  5.5266708e-02
 -5.3895410e-06
  1.5982267e-01
  3.9252570e-01
 -2.0978238e-01
 -3.0883205e-01
 -8.4335574e-05
 -8.0392274e-06
 -6.5117772e-04
  1.2178358e-01
  7.5403154e-02
  2.7213191e-05
 -2.4413092e-05
  8.2145459e-07
  9.7297834e-06
  4.3118335e-02
  3.7042028e-05
 -1.6558003e-01
 -3.4159477e-04
  2.7297989e-02
 -9.0341025e-05
 -2.3835484e-05
 -9.0962152e-05
  2.1024871e-05
  1.6229420e-05
  6.3259868e-06
 -4.5150673e-06
  1.6582500e-04
 -6.2967782e-05
 -5.3415413e-05
  1.6700788e-04
  8.2294573e-05
 -3.8279653e-05
  6.2202321e-07
 -1.5113752e-04
  9.0465212e-05
  3.5335019e-05
 -4.0397858e-06
 -5.0303202e-05
  4.9186558e-05
  1.6817235e-07
 -1.0163589e-04
  7.0914131e-05
  3.1936095e-05
 -4.0696137e-05
 -7.7189463e-05
 -1.8738108e-05
 -4.5406035e-05
  3.6254725e-05
 -5.0563817e-06
  3.6149161e-06
 -8.8595138e-05
  1.3715156e-06
 -4.9032256e-02
  1.1527370e-04
 -4.5565554e-05
  6.0255893e-06
 -2.1830115e-04
 -1.4037584e-05
 -1.7836610e-05
 -6.2601124e-05
 -1.5862442e-04
 -3.6202455e-05
 -2.0935205e-04
  7.5900402e-06
  1.4127006e-01
 -8.9795714e-05
 -4.2537522e-05
  1.2473825e-05
 -1.9515777e-04
 -1.0159700e-04
  1.1041965e-06
  1.5282148e-04
  7.8105782e-05
 -1.3074560e-04
 -4.6094087e-06
 -6.7468187e-05
  9.1446518e-06
  4.0392802e-05
 -2.0711028e-05
 -2.7578708e-05
 -5.6830777e-05
  1.5951216e-05
 -5.0855756e-06
  5.3462674e-05
 -1.5036722e-04
 -2.9274466e-05
  5.3651154e-05
 -1.6448190e-04
  2.0339105e-05
 -6.7947331e-05
 -3.2590018e-05
  1.6919468e-04
  1.1203806e-05
  1.8548806e-05
 -5.0527824e-06
  3.6235335e-05
 -8.1879582e-05
  7.6195688e-06
  6.5428831e-05
  5.1427364e-06
 -4.9278275e-05
  1.4549913e-04
  7.7737874e-05
  3.5436256e-05
 -6.4425067e-06
 -8.5773638e-07
  1.3827947e-05
  3.1047709e-06
  2.7124406e-05
  3.6853282e-05
 -4.0584600e-05
  9.9381636e-05
 -9.0458459e-05
  1.1064903e-05
 -8.4046851e-06
  8.9934401e-06
  9.1597358e-06
  8.9278301e-06
 -2.0067786e-05
  4.5657540e-05
  2.9300572e-05
  3.7267677e-05
 -6.1433981e-05
 -9.4098523e-06
 -9.1159336e-06
 -9.4204179e-06
 -6.5267350e-06
  2.6127673e-05
  9.2711896e-05
 -7.0544797e-07
 -1.9111723e-05
  1.1069379e-04
  2.9202556e-05
  2.7460730e-05
 -6.5340311e-05
  5.5739474e-05
 -3.6330821e-06
  3.8357139e-06
 -8.5940826e-07
  5.4628505e-05
  1.9350549e-05
 -7.7666235e-05
 -9.0339498e-05
  4.2921274e-05
 -1.2541372e-05
  2.0557758e-05
  4.8055153e-05
 -7.0662798e-05
  4.3459400e-05
 -1.4338205e-05
 -3.3158358e-05
  6.7022782e-05
  4.1127925e-05
  1.0716377e-05
 -1.4779787e-05
 -7.6507553e-05
  3.2832329e-05
 -7.4858996e-05
 -2.8579398e-06
  6.8388428e-05
 -1.1241828e-04
 -6.1812207e-05
 -6.1134619e-05
  1.0004529e-04
  4.1801090e-05
  4.7378337e-05
 -2.3435958e-04
  5.5835753e-05
 -2.9795139e-05
 -8.0121994e-05
 -1.5575451e-05
  6.1947416e-05
 -6.7839494e-05
  9.8075343e-06
 -6.0600032e-05
  3.1147720e-05
 -5.4088076e-05
  1.4374534e-06
 -3.5865098e-05
 -3.9826788e-05
  7.9417325e-05
 -2.4965855e-05
  2.2872844e-05
 -5.4171229e-05
  6.0551879e-06
 -3.4647936e-05
 -4.5378089e-05
  3.2182698e-04
  2.5889520e-05
  3.3518874e-05
 -6.8946247e-05
 -3.0901399e-05
  4.4653330e-05
  1.0947134e-05
  3.1219326e-05
 -5.8996731e-05
 -1.3083553e-04
  1.1099928e-04
  3.3366254e-05
  5.7124198e-05
 -2.7671309e-05
  1.9328354e-05
  1.7228922e-01
  1.3036681e-04
  1.1697819e-01
  1.6916101e-05
  4.4538497e-04
 -2.7646519e-02
  6.6909470e-02
  1.6296318e-02
 -7.8813287e-07
  7.5396773e-04
  7.0296459e-02
 -8.9953950e-04
 -6.1006331e-01
 -9.4170400e-07
  2.4304096e-05
  2.1221487e-05
  1.9052472e-02
  4.0687126e-04
 -8.3186329e-05
  1.3111040e-04
 -1.2693536e-05
 -1.1757286e-04
  1.2898522e-04
 -1.4510716e-06
 -6.6769558e-06
 -5.9174363e-05
  1.2063811e-04
 -2.3674800e-05
  2.4294142e-04
  7.2133029e-05
  7.0705816e-02
  4.1619911e-05
 -5.4081451e-05
  4.3068456e-05
  3.0024335e-04
 -3.6309669e-03
  4.1815661e-02
  1.1506533e-02
 -7.6602591e-05
  1.5312587e-06
  1.4407216e-02
 -1.6831687e-04
 -2.5173214e-01
 -3.0393176e-05
 -2.3085058e-06
 -5.2947446e-05
  3.5712215e-05
  7.8426450e-03
 -5.1980121e-05
 -8.3278275e-05
 -6.3733954e-05
  9.0621303e-05
 -2.8615446e-05
 -6.7013374e-05
 -1.4003472e-04
  1.2663624e-05
 -1.8060455e-05
  8.5862659e-05
 -2.2192055e-05
  3.7655955e-05
  1.0616524e-04
 -6.0850507e-05
 -4.2124325e-06
  1.2478938e-04
  2.5306467e-04
  1.6654116e-05
  4.8561662e-05
 -1.0128996e-05
  3.4869052e-05
  1.3534665e-04
  7.1939576e-05
  7.9370739e-06
  5.3883950e-06
 -2.8175680e-06
 -5.1399398e-05
  1.8517192e-05
  7.0093924e-06
 -1.3857294e-04
 -4.5351466e-05
  7.1701535e-05
  1.0733038e-04
 -8.4763615e-06
 -3.1860869e-05
  3.7617014e-05
 -1.1323759e-05
 -1.3070907e-05
 -1.7281158e-05
 -3.2168358e-05
 -5.8513426e-05
  1.3521614e-05
 -1.0779957e-05
 -7.3773052e-05
 -9.7242635e-05
  4.1392639e-05
  2.4992050e-05
  2.3787346e-05
 -3.8475639e-05
  8.5039581e-05
  4.4212480e-05
 -3.7147220e-05
  1.4013036e-04
 -5.5288263e-05
 -1.6497055e-05
  4.7730733e-05
 -2.5167225e-05
  1.1812975e-05
 -1.6208719e-04
 -2.2046788e-05
  8.1399638e-05
 -8.3390565e-05
 -2.8292419e-05
 -8.8339017e-05
 -1.2748342e-04
  3.9082719e-05
 -1.1115806e-04
  8.6587766e-05
  1.4632018e-05
 -1.1849481e-05
 -5.8686510e-06
 -2.0396508e-05
  1.0424240e-01
  6.4576532e-05
 -7.0715478e-06
  1.1608229e-04
  1.6532061e-04
 -6.2523242e-05
  2.0303141e-02
  9.1082009e-04
  1.3744765e-05
  6.6400986e-05
  1.1067264e-03
 -1.3126752e-04
 -3.4293973e-01
 -7.3475363e-05
  6.0979775e-05
  1.6117460e-06
  4.8474129e-04
  2.3868361e-02
 -2.6421569e-05
  8.1819475e-05
  7.2301598e-05
  1.2975770e-04
  9.6882672e-05
 -1.3460299e-05
  2.9315101e-05
  3.2961543e-05
  7.8670055e-06
  3.4012315e-05
 -4.0659615e-06
 -4.6531037e-05
  1.2807687e-01
  6.0429207e-05
  1.1554426e-04
 -5.1210583e-05
  1.6532994e-04
 -8.6265261e-04
  3.1200616e-02
  3.1556908e-04
  8.6660322e-05
  1.0992967e-06
  1.4503458e-02
 -7.1886439e-05
 -3.0834025e-01
  3.2013351e-05
 -8.1302336e-05
 -8.0964957e-05
  2.3879355e-04
  1.4652721e-04
 -1.1853931e-05
  2.9543644e-05
 -4.1988205e-05
  4.6247071e-05
 -1.4258070e-05
 -3.3568213e-05
 -7.7244229e-05
 -1.3189936e-04
 -1.0001420e-05
  3.8597031e-05
  1.2275557e-06
  7.4599993e-05
 -2.4205055e-02
  9.4772127e-05
  9.4950505e-05
 -7.5933531e-07
  2.4530709e-05
  9.9243851e-05
 -5.6779678e-05
 -7.2999368e-04
  3.3535300e-05
 -3.2001928e-05
 -2.5783380e-04
  1.7709504e-05
  1.4486226e-01
  3.7679187e-05
 -2.4746587e-05
  2.3136294e-05
  1.7424583e-05
 -1.9120012e-05
 -3.0206022e-05
 -8.6078122e-05
  5.2806248e-05
 -8.5288506e-05
 -1.3056736e-04
 -2.2695351e-05
  2.2645755e-04
  2.7066188e-05
 -3.4894951e-05
  4.6287962e-05
 -1.4784613e-05
  3.2591975e-05
 -1.6503245e-06
  1.7031160e-05
  6.8286186e-05
  3.6301415e-05
 -3.6972024e-06
  2.7773882e-05
 -4.2637552e-05
  1.8945700e-04
  7.4654781e-05
  7.8513131e-06
  2.0710077e-05
 -2.2387379e-05
  7.0993636e-05
  2.7954531e-05
  2.8148026e-05
 -1.1932251e-04
 -6.8621830e-06
  3.1676220e-05
 -6.4826898e-05
  1.5247706e-04
 -1.6490980e-06
 -1.1346351e-04
 -4.2252508e-05
  6.2856834e-06
 -1.2428647e-05
  1.3208220e-05
  4.2170823e-06
 -5.3390186e-06
  4.3320080e-05
 -4.8552025e-05
 -2.6325848e-05
 -5.1181902e-05
 -4.4445071e-05
 -1.5469799e-05
 -4.8395097e-05
  2.3240482e-05
 -3.7292673e-05
  7.6382392e-05
 -1.8591471e-05
 -4.7332254e-05
  2.0357695e-05
 -2.1585787e-05
  5.4563512e-05
 -9.5407726e-05
 -1.2673739e-05
  1.4568350e-05
  4.7239064e-05
  6.8907393e-05
  8.0530852e-05
 -7.2828421e-05
 -2.0002846e-05
 -8.3121100e-05
  1.8011975e-05
 -1.1868560e-04
 -1.0975937e-04
  4.7802630e-05
 -4.8882821e-06
 -1.4409422e-05
 -1.4204239e-04
  2.2095646e-06
  1.1023904e-04
  6.5940178e-05
 -1.2860407e-05
  1.2750068e-04
 -4.6825950e-05
 -9.8712499e-06
 -6.4095715e-05
 -4.1016698e-05
 -1.8989636e-05
 -1.8066501e-05
  1.1462941e-05
 -2.5491487e-05
  1.2297404e-04
 -1.8287705e-05
  3.1763833e-05
  1.4021005e-05
  4.5558834e-05
 -6.5589731e-05
 -8.1196831e-06
 -8.6332293e-05
  4.7545840e-05
 -1.4260600e-04
 -9.2377586e-06
 -4.2703385e-05
 -5.4733937e-05
 -6.2219995e-05
  9.3700262e-05
  1.2571038e-05
  1.3565696e-04
 -2.0943273e-05
 -4.0893879e-05
  1.8851213e-04
  5.1445772e-06
  6.7731671e-05
 -1.0454650e-04
  5.4648986e-05
  1.1319043e-04
 -9.8385644e-06
 -1.8948273e-05
 -3.9101756e-06
  2.8889415e-05
  2.6054031e-04
 -5.3919895e-05
  4.5231820e-05
  1.0622057e-05
 -3.4343553e-05
 -3.7608708e-05
 -3.0617293e-06
 -2.8825436e-05
 -9.0291513e-05
 -3.1612701e-06
 -1.5720657e-04
  5.6116405e-05
  2.3894868e-06
 -3.6213765e-05
  9.6140884e-06
 -8.5589900e-06
 -9.6026065e-07
  6.2282576e-05
  6.5332955e-05
 -9.1616869e-02
 -2.1812526e-05
 -1.1033385e-04
  2.1510128e-05
 -5.8375615e-05
  5.2319316e-05
 -3.7698581e-05
 -1.3323317e-05
 -1.9507348e-05
 -1.3737890e-04
 -1.6584419e-05
  4.2507178e-05
  1.4702372e-01
  2.0376177e-05
 -7.0779743e-06
  8.7520486e-05
 -3.8611783e-05
  1.0605628e-05
  9.1282363e-06
 -3.4412344e-05
  5.8535588e-05
 -6.0970313e-05
 -9.8926765e-05
 -3.2959786e-05
  1.1538136e-04
 -1.2879733e-04
 -2.0667283e-05
  3.7787122e-05
 -1.6458080e-05
 -1.2462461e-05
  6.7266883e-05
  2.2390330e-05
 -8.6561289e-05
  5.2925396e-05
  1.7792126e-04
 -6.8423481e-07
 -2.1687005e-05
 -5.9631311e-05
  7.9078272e-05
  3.8780454e-05
  1.1730987e-04
 -3.9242987e-06
 -5.2418887e-05
  4.2472326e-05
  2.5651345e-06
 -1.7337445e-05
 -5.1993437e-05
 -2.6629781e-05
 -1.4814436e-05
  7.5276644e-06
  1.0499122e-04
  3.1088566e-05
  4.6604123e-06
  7.5746252e-06
 -6.8038957e-05
  4.2789325e-06
 -4.6248591e-05
 -4.0104424e-06
 -3.7554237e-05
 -1.2451352e-04
  7.9696751e-05
  7.6520148e-05
 -3.6974390e-05
 -4.8280359e-05
 -1.2128131e-04
  1.1640615e-04
 -2.5278026e-05
 -7.2100966e-06
  1.0000529e-05
  3.2125161e-05
 -5.2614259e-06
 -8.7876680e-05
  7.5647418e-05
 -2.3978106e-05
 -8.8911518e-05
  9.2347473e-05
 -1.8210942e-04
  2.1449605e-05
  2.3551524e-05
  1.7833830e-05
  3.5514244e-05
 -7.4532854e-06
  1.7810764e-05
 -2.2414337e-05
  4.6638452e-05
 -5.4455119e-05
 -1.2306622e-04
 -6.1133505e-05
 -3.5402450e-01
  8.5222428e-07
 -5.7144564e-01
  1.4383538e-04
 -3.5260011e-02
  1.0995613e-05
 -8.3265807e-03
  4.9639731e-03
 -4.8135068e-02
 -4.5167133e-01
  9.1547598e-05
 -4.7660880e-02
 -1.1344742e-01
  7.2790682e-02
  3.4038094e-01
  1.1336625e-05
 -8.6026565e-05
  4.6671648e-02
 -1.0498906e-04
 -3.5762168e-02
  1.6213664e-05
  7.1837021e-06
  4.5486664e-05
  4.2116230e-06
 -3.1017946e-05
 -7.3484682e-07
  1.6391053e-04
  1.3468544e-05
 -2.2704140e-05
  5.0136321e-05
 -1.6165102e-05
 -4.8634138e-06
  8.9140754e-05
 -7.4620424e-05
 -3.7602018e-05
  2.4785809e-06
  2.4661396e-04
 -1.4266437e-05
 -6.3371219e-05
  8.0284133e-07
 -8.9436653e-05
  3.1203126e-05
  2.3665309e-05
  1.7139666e-04
 -4.4717708e-05
  1.0739369e-04
 -2.6136287e-05
  1.2462810e-05
  1.3440040e-04
 -2.1829312e-05
  8.1909820e-05
  1.4107878e-05
  6.4117949e-06
 -9.4076740e-06
 -4.8685441e-05
  3.8214921e-06
  6.0773578e-05
  5.6529487e-05
 -1.0501379e-05
  1.9297695e-05
  1.5698325e-02
  1.0677721e-01
  8.7390297e-05
  1.2358962e-04
 -3.6808762e-03
 -5.4281222e-06
 -1.3234209e-01
  9.6410942e-05
  4.7473755e-01
  1.3655615e-05
 -5.0583192e-05
  6.9765018e-05
  6.9606591e-05
 -7.7681472e-03
  4.1489217e-02
 -1.8921628e-05
 -5.0756262e-06
  1.6778996e-04
  3.2750206e-05
 -3.6958907e-05
 -9.2889357e-05
 -3.6603578e-05
  1.0610382e-04
 -4.2443207e-05
 -1.0802143e-01
 -6.3199208e-05
 -9.6850135e-06
  9.2288995e-01
  2.6452395e-05
 -1.2160937e-04
 -4.8716480e-01
  1.7522080e-01
 -4.1875978e-08
  6.9400012e-05
 -1.8878390e-01
 -6.6337880e-06
  1.0864586e+00
  2.8629596e-05
 -2.4919717e-01
  6.7647612e-05
  1.1463278e-05
 -3.5267028e-06
 -1.6102682e-05
  3.6809507e-01
  2.9091308e-01
  8.1838138e-05
 -1.2646505e-05
  2.9210860e-01
  3.0115846e-01
 -1.8861376e-01
 -1.3621370e-05
  1.6828677e-05
  1.4826759e-04
  4.7673024e-05
 -1.9443101e-01
 -3.9219700e-05
 -2.2875602e-05
 -6.5455842e-01
  1.9536097e-05
  4.4536538e+00
 -1.0010074e-05
 -1.1916920e-04
 -1.0972916e-05
 -2.6670979e-05
 -2.8731629e-05
 -5.9618724e-05
  3.8671311e-05
  6.0427983e-06
 -7.6578974e-05
  2.2037295e-05
 -8.6723740e-06
 -1.0861515e-05
 -8.6290616e-05
  2.5355908e-05
 -1.4516719e-05
 -1.4789620e-05
 -2.3527791e-05
 -2.7391776e-05
 -3.8358889e-05
 -2.4577756e-05
 -2.2924994e-06
 -3.7645805e-05
 -4.3615499e-05
  2.9327262e-05
 -5.2873700e-05
 -1.9031442e-05
 -3.7807498e-05
  1.7715001e-05
  1.0317610e-05
 -1.0872908e-06
 -5.3012547e-05
 -3.3748416e-05
 -1.0258195e-04
  2.9902465e-05
  7.1990056e-05
  1.2910199e-05
 -6.9864967e-05
  6.1627175e-06
  3.1051684e-05
 -4.2456748e-05
  4.5300741e-05
 -4.2739841e-05
  2.5338983e-05
  2.6039716e-06
 -6.2446024e-06
 -4.6461046e-05
 -1.3580348e-05
 -7.5581745e-05
 -2.4978233e-05
  9.7041448e-06
  4.7218804e-05
 -6.9666901e-05
 -8.0457496e-05
 -7.8260882e-07
  7.0226277e-05
 -1.6841003e-01
  6.1212973e-05
  2.4752375e-05
 -3.7535498e-05
 -1.8978769e-04
 -5.8880629e-05
 -1.6572162e-04
  9.1457714e-06
 -1.3318731e-02
 -1.3453852e-04
  9.8481061e-05
 -1.5093355e-05
 -6.0326308e-02
 -2.7230979e-05
 -3.7304988e-05
  1.9690147e-05
 -9.1643458e-05
 -5.6591789e-06
  8.2782008e-06
 -2.0346266e-05
 -1.4356796e-01
  1.0723895e-05
 -1.2619013e-04
 -6.1661987e-05
 -1.7266884e-03
 -7.6782244e-06
 -8.9055065e-06
  1.0794575e-04
 -6.7253955e-02
  8.4826288e-06
  5.9178281e-05
  6.0923234e-05
 -9.5462963e-02
 -1.0492294e-05
  6.3998791e-06
  1.6206867e-04
 -1.3506609e-04
  3.0910771e-05
  1.7335167e-04
  5.2192354e-05
 -1.1772114e-01
 -1.3954176e-05
 -1.3368406e-05
  9.6845892e-05
 -1.6240864e-01
 -2.9553688e-05
  5.4730328e-05
  9.6486077e-02
 -2.4413828e-05
 -6.9767972e-05
 -2.4870124e-05
 -5.1730800e-05
 -8.0411091e-06
 -3.9016624e-05
 -5.8689035e-05
  2.3094960e-04
  8.1490994e-05
 -1.4617271e-04
  2.0052990e-04
 -8.3287750e-06
 -1.3287351e-05
 -2.2480277e-05
 -2.2706794e-05
 -1.7782339e-05
 -5.8372578e-05
  3.1836011e-05
 -1.2797693e-06
 -3.8011305e-05
  2.5318201e-05
 -1.0059221e-05
 -4.5497647e-05
  1.4195332e-04
  5.8178007e-06
  7.0549198e-05
  2.4077541e-05
  5.6228597e-05
  3.9059712e-05
  2.3384398e-05
 -1.4490275e-05
 -6.7270877e-05
  1.2927927e-04
 -2.2563348e-04
 -4.2592517e-05
 -1.1101540e-05
  1.9799163e-05
 -4.0002957e-05
  3.4387169e-05
  1.4526605e-05
  9.7069213e-05
  4.1851665e-05
 -2.6284768e-05
 -2.3297780e-05
 -5.0820592e-05
 -7.7247154e-05
 -4.2594813e-05
  2.0296256e-05
  6.2059873e-05
 -1.2100768e-05
 -5.7396770e-05
  3.6846523e-06
  7.6877346e-05
  9.2064045e-05
  1.7497110e-05
  1.6658516e-06
 -4.4571719e-01
 -1.1548186e-04
  2.5679503e-07
  2.6079972e-06
 -3.6804220e-05
 -5.7070924e-05
  3.1791704e-05
 -7.9230362e-05
 -5.8824748e-02
  2.4533417e-04
 -4.6853620e-05
 -1.0649484e-05
 -2.8986594e-01
 -4.2268971e-06
  5.4274075e-05
 -1.1237465e-05
 -1.7393191e-05
 -2.8473856e-05
 -3.0700071e-06
 -3.2314103e-05
 -2.1128792e-01
 -3.8115555e-05
 -3.2645265e-05
 -3.5610898e-05
 -1.2927629e-01
 -5.3494328e-05
  1.8243800e-04
  2.4142150e-04
 -2.2165912e-01
  9.7376851e-06
 -5.2642870e-05
 -1.2614252e-01
 -1.1004402e-01
 -1.0115192e-05
  8.3895458e-05
  2.3796405e-01
 -2.9666129e-02
  3.1638392e-05
 -3.2763644e-05
 -2.4585469e-02
 -3.9779833e-03
 -6.9153415e-05
 -3.4669006e-07
 -1.3798061e-01
 -2.1102121e-01
  4.2298794e-05
  5.4334014e-05
  3.1394529e-01
 -9.9128045e-02
  1.2397422e-02
 -2.4271715e-01
  1.1182890e-05
 -5.6376291e-05
  1.8333441e-04
 -1.5240017e-04
  2.1282136e-05
  2.7971066e-05
  3.7743047e-01
 -3.7083440e-02
 -6.5248382e-06
  1.1132629e-04
 -1.5900733e-02
 -8.8636011e-02
 -1.3955311e-04
 -1.7327024e-04
  1.3316071e-01
 -3.9068829e-02
 -4.1577685e-05
 -1.1084381e-05
  3.1809026e-01
 -5.6274150e-02
  3.0459758e-05
 -9.2200626e-06
  1.5063110e-01
 -1.7633639e-02
  5.1620129e-05
  1.0284597e-05
  1.7967696e-01
 -5.9257414e-02
  2.2673121e-06
 -1.4384575e-05
 -5.2670145e-01
 -3.5701093e-01
  6.5958040e-05
 -1.7282457e-05
  4.4998657e-02
  1.3837922e-01
 -2.7579934e-05
  3.6313584e-05
  8.9348540e-02
 -2.6655409e-01
 -5.6380573e-05
  9.5835276e-06
 -3.7108016e-01
 -3.8374478e-01
 -6.2728877e-06
 -6.7457813e-06
  2.9390210e-01
  2.6708484e-01
 -1.4432042e-05
  5.1258176e-05
  8.1264299e-01
  6.9814754e-01
  1.2702735e-01
  4.0032545e-01
 -9.9706137e-01
  1.1119167e-02
  4.5707059e-01
  2.7094639e-03
 -3.0365601e-01
 -6.7588812e-01
  3.1919450e-01
 -2.9695308e-01
  1.1320084e+00
 -1.1079077e-01
  2.8578477e-02
 -2.3768025e-03
  6.0708666e-01
 -4.8633793e-01
 -5.0933510e-01
 -7.3083121e-01
 -1.8438634e-01
  1.2296042e+00
 -1.0226041e-03
  7.6546288e-01
  7.4500757e-01
  1.3866158e+00
  1.2686183e+00
  4.7459424e-01
 -1.3469419e+00
 -1.6242174e+00
 -5.9929055e-01
 -1.2261899e+00
 -5.7154614e-01
 -1.3209200e-01
  5.6966197e-01
  9.2221475e-01
  5.2041316e-01
 -1.0379782e-01
 -3.9589595e-06
 -1.3821314e-04
  1.4899433e-01
 -3.2584369e-02
 -1.2780368e-04
 -5.4071941e-05
 -5.7045454e-01
  4.5340896e-02
  5.7112925e-06
 -2.7022401e-05
 -2.2963367e-01
  3.1996730e-01
  2.2834798e-05
  2.9285482e-06
 -4.1434863e-01
  5.3361362e-01
 -4.0311301e-05
 -3.3209304e-05
 -2.9508689e-01
 -5.4656968e-02
 -1.7448619e-05
  4.2246258e-05
 -1.2127677e-01
 -1.0331305e-01
 -5.6038811e-05
  2.2762068e-04
  5.7951432e-01
  3.8947043e-01
  6.1781298e-06
 -4.8655624e-05
  7.0055820e-02
 -2.4034135e-01
  3.1295458e-05
  2.1515787e-05
  1.1569386e-01
  3.5318252e-01
  7.8007220e-03
 -1.0842803e-01
 -1.1420666e-01
  1.3709508e-04
 -4.2201209e-05
 -1.1655509e-04
  2.7211308e-01
  1.5922573e-04
  5.3894993e-02
 -3.6849163e-04
 -1.2064619e-01
 -4.7182597e-02
 -2.1501159e-04
 -1.9832812e-02
 -2.8634092e-01
  3.2461029e-01
  1.7954151e-05
 -1.8121524e-01
  3.4620464e-01
 -2.3231426e-02
  2.0351423e-01
  1.3348578e-02
 -7.8799913e-04
 -2.7134025e-01
 -1.0678171e-01
 -1.7071162e-01
  2.4669218e-01
  6.1490929e-01
  1.6296396e-02
 -2.1503347e-05
  9.8618772e-03
  1.7879847e-01
  1.7559746e-01
  1.3960102e-05
  5.4226923e-01
  1.2346233e-01
 -1.2979847e-01
 -6.0729396e-02
  5.0077002e-02
 -1.5423381e-04
 -3.0558374e-05
 -1.5561739e-02
 -9.4795279e-05
  3.0770153e-01
 -2.1054521e-04
  7.8630954e-02
  1.0962344e-01
  2.3016647e-02
 -7.0740223e-02
 -5.1804972e-01
  8.4837504e-02
  9.3898915e-02
 -3.2700363e-01
  8.7854885e-02
 -3.7331870e-03
  1.1371446e-01
  6.4067625e-02
 -4.7669780e-02
  1.9917499e-01
  2.2175723e-01
 -3.6956409e-01
 -2.9755861e-01
 -4.7945794e-02
  3.4251843e-02
 -6.6224039e-02
  7.3254032e-06
 -1.6937098e-05
  1.9768859e-01
 -1.0763869e-01
 -5.3797523e-03
  2.8070655e-02
  3.0530529e-02
 -6.3981378e-01
 -2.4608460e-01
 -2.5163330e-02
 -1.2446978e-04
 -8.9070585e-05
 -2.5888796e-05
 -2.6501143e-01
  1.6165215e-01
  3.9570157e-05
 -3.2279742e-01
 -6.6685930e-02
 -2.5669488e-01
 -2.3634467e-02
 -9.6663227e-03
 -2.2067209e-01
  4.6828887e-04
  4.2213161e-02
 -3.2202646e-01
 -1.2325925e-01
 -3.3321241e-03
 -2.7115202e-02
 -5.6781042e-02
 -4.0707711e-02
  3.6975436e-02
  1.5608610e-03
 -4.3313006e-01
 -2.8568617e-01
 -3.4211704e-01
 -5.1063549e-02
 -3.0992651e-01
 -5.7773766e-05
  2.9000059e-01
  3.8997404e-02
  4.4286349e-05
  4.0571790e-02
  4.0571790e-02
  4.0571790e-02
  4.0571790e-02
  4.0571790e-02
  4.5528650e+00
  4.5528650e+00
  4.5528650e+00
  4.5528650e+00
  4.5528650e+00
  1.9770634e+00
  1.9770634e+00
  1.9770634e+00
  1.9770634e+00
  1.9770634e+00
  1.1441583e-01
  1.1441583e-01
  1.1441583e-01
  1.1441583e-01
  1.1441583e-01
  9.5798939e-02
  9.5798939e-02
  9.5798939e-02
  9.5798939e-02
  9.5798939e-02
  7.6035390e+00
  7.6035390e+00
  7.6035390e+00
  7.6035390e+00
  7.6035390e+00
